{"learner":{"attributes":{"scikit_learn":"{\"_estimator_type\": \"classifier\"}"},"feature_names":["duration","credit_amount","monthly_payment","age","installment_rate","residence_since","existing_credits","num_dependents","financial_stability","employment_points","overall_stability","purpose_points","credit_history_A31","credit_history_A32","credit_history_A33","credit_history_A34","personal_status_A92","personal_status_A93","personal_status_A94","other_parties_A102","other_parties_A103","property_A122","property_A123","property_A124","other_payment_plans_A142","other_payment_plans_A143","housing_A152","housing_A153","job_A172","job_A173","job_A174","telephone_A192","foreign_worker_A202"],"feature_types":["int","int","float","int","int","int","int","int","int","int","int","int","i","i","i","i","i","i","i","i","i","i","i","i","i","i","i","i","i","i","i","i","i"],"gradient_booster":{"model":{"cats":{"enc":[],"feature_segments":[],"sorted_idx":[]},"gbtree_model_param":{"num_parallel_tree":"1","num_trees":"100"},"iteration_indptr":[0,1,2,3,4,5,6,7,8,9,10,11,12,13,14,15,16,17,18,19,20,21,22,23,24,25,26,27,28,29,30,31,32,33,34,35,36,37,38,39,40,41,42,43,44,45,46,47,48,49,50,51,52,53,54,55,56,57,58,59,60,61,62,63,64,65,66,67,68,69,70,71,72,73,74,75,76,77,78,79,80,81,82,83,84,85,86,87,88,89,90,91,92,93,94,95,96,97,98,99,100],"tree_info":[0,0,0,0,0,0,0,0,0,0,0,0,0,0,0,0,0,0,0,0,0,0,0,0,0,0,0,0,0,0,0,0,0,0,0,0,0,0,0,0,0,0,0,0,0,0,0,0,0,0,0,0,0,0,0,0,0,0,0,0,0,0,0,0,0,0,0,0,0,0,0,0,0,0,0,0,0,0,0,0,0,0,0,0,0,0,0,0,0,0,0,0,0,0,0,0,0,0,0,0],"trees":[{"base_weights":[-0E0,7.312775E-1,-1.1191012E0,7.017544E-2,1.0547045E0,-7.237354E-1,-1.625E0,6.909091E-1,-4.918033E-1,1.2354571E0,3.6E-1,-3.5151514E-1,-1.3333334E0,-1.6577541E0,-6.666667E-2,1.0212766E0,-1E0,-7.924528E-1,1.2E0,9.704641E-1,1.6875E0,7.5E-1,-3E-1,-6.771653E-1,6.666667E-1,-1.5121951E0,-2.2222222E-1,-6.666667E-2,-5.0769234E-1,1.2777778E0,1.5384616E-1,1.5E-1,-4.5000002E-1,-3.030303E-1,-1.4545455E0,4.5000002E-1,-0E0,3.655914E-1,1.3243244E0,1.6363637E-1,1.7355372E0,-1.6666667E-1,1.1818181E0,-1.0344827E0,3.6E-1,-8.521739E-1,7.5E-1,9.714286E-1,-1.6363637E-1,-2.5E-1,-1.7142857E0,3E-1,-8.5714287E-1,4.3384618E-1,-5.454546E-2,-3E-1,2.6666668E-1,-4.2857146E-1,6.1224494E-2,-5.052632E-1,-0E0,2.3225807E-1,-1.20000005E-1,4.1666666E-1,-1.5E-1,2.3076925E-1,5.357143E-1,1.3846155E-1,-2.0000002E-1,4.3783784E-1,-5.454546E-2,-4.434783E-1,1.20000005E-1,-4.0000004E-1,-1.20000005E-1,4.0000004E-1,-1.5E-1,3.529412E-2,4.3636367E-1,2.0000002E-1,-2.7272728E-1,-5.446154E-1,-6.666667E-2,-0E0,-3.6E-1],"categories":[],"categories_nodes":[],"categories_segments":[],"categories_sizes":[],"default_left":[0,0,0,0,0,0,0,0,0,0,0,0,0,0,0,0,0,0,0,0,0,0,0,0,0,0,0,0,0,0,0,0,0,0,0,0,0,0,0,0,0,0,0,0,0,0,0,0,0,0,0,0,0,0,0,0,0,0,0,0,0,0,0,0,0,0,0,0,0,0,0,0,0,0,0,0,0,0,0,0,0,0,0,0,0],"id":0,"left_children":[1,3,5,7,9,11,13,15,17,19,21,23,25,27,-1,29,31,33,35,37,39,41,43,45,47,49,51,-1,-1,53,55,-1,-1,57,59,-1,-1,61,63,-1,65,67,69,71,-1,73,75,77,-1,79,81,-1,83,-1,-1,-1,-1,-1,-1,-1,-1,-1,-1,-1,-1,-1,-1,-1,-1,-1,-1,-1,-1,-1,-1,-1,-1,-1,-1,-1,-1,-1,-1,-1,-1],"loss_changes":[2.3037215E2,3.6328552E1,2.1075607E1,2.022362E1,1.3901566E1,1.410994E1,1.8370514E0,1.6383366E1,1.6464462E1,9.173233E0,6.66E0,1.4128752E1,4.4336014E0,1.9428711E0,0E0,5.032097E0,4.5E0,8.14637E0,1.8000002E0,1.2197731E1,8.0888367E-1,6.530303E0,1.2258621E1,8.569206E0,4.4086585E0,4.800522E0,4.349206E0,0E0,0E0,4.686634E0,6.401709E0,0E0,0E0,9.709339E0,3.6746407E0,0E0,0E0,7.582795E0,5.0525513E0,0E0,9.309387E-2,2.1923077E0,4.4299774E0,5.206596E0,0E0,5.721739E0,3.5833335E0,3.4380445E0,0E0,3.0227273E0,2.2363853E0,0E0,1.0285714E0,0E0,0E0,0E0,0E0,0E0,0E0,0E0,0E0,0E0,0E0,0E0,0E0,0E0,0E0,0E0,0E0,0E0,0E0,0E0,0E0,0E0,0E0,0E0,0E0,0E0,0E0,0E0,0E0,0E0,0E0,0E0,0E0],"parents":[2147483647,0,0,1,1,2,2,3,3,4,4,5,5,6,6,7,7,8,8,9,9,10,10,11,11,12,12,13,13,15,15,16,16,17,17,18,18,19,19,20,20,21,21,22,22,23,23,24,24,25,25,26,26,29,29,30,30,33,33,34,34,37,37,38,38,40,40,41,41,42,42,43,43,45,45,46,46,47,47,49,49,50,50,52,52],"right_children":[2,4,6,8,10,12,14,16,18,20,22,24,26,28,-1,30,32,34,36,38,40,42,44,46,48,50,52,-1,-1,54,56,-1,-1,58,60,-1,-1,62,64,-1,66,68,70,72,-1,74,76,78,-1,80,82,-1,84,-1,-1,-1,-1,-1,-1,-1,-1,-1,-1,-1,-1,-1,-1,-1,-1,-1,-1,-1,-1,-1,-1,-1,-1,-1,-1,-1,-1,-1,-1,-1,-1],"split_conditions":[3E0,1.6E1,2E0,1E0,2E0,2E0,1.0366E4,2E0,1E0,1E0,2E0,4.542E3,1E0,2.3E1,-6.666667E-2,1.51E3,3.5E1,3.1E1,4.9E1,1E0,2.5E1,1E0,6.224E3,1E0,4.2E1,1E0,3.5E1,-6.666667E-2,-5.0769234E-1,4.9E1,2.551E3,1.5E-1,-4.5000002E-1,1E0,1E0,4.5000002E-1,-0E0,1.4855556E2,5.5E1,1.6363637E-1,1.9E1,1E0,1.4533333E2,3.7E1,3.6E-1,1E0,2.2E1,1E0,-1.6363637E-1,1E0,1E0,3E-1,2.039E3,4.3384618E-1,-5.454546E-2,-3E-1,2.6666668E-1,-4.2857146E-1,6.1224494E-2,-5.052632E-1,-0E0,2.3225807E-1,-1.20000005E-1,4.1666666E-1,-1.5E-1,2.3076925E-1,5.357143E-1,1.3846155E-1,-2.0000002E-1,4.3783784E-1,-5.454546E-2,-4.434783E-1,1.20000005E-1,-4.0000004E-1,-1.20000005E-1,4.0000004E-1,-1.5E-1,3.529412E-2,4.3636367E-1,2.0000002E-1,-2.7272728E-1,-5.446154E-1,-6.666667E-2,-0E0,-3.6E-1],"split_indices":[8,0,11,11,11,9,1,7,23,23,9,1,27,3,0,1,3,3,3,22,3,29,1,24,0,25,3,0,0,3,1,0,0,29,30,0,0,2,3,0,0,31,2,0,0,13,0,29,0,11,18,0,1,0,0,0,0,0,0,0,0,0,0,0,0,0,0,0,0,0,0,0,0,0,0,0,0,0,0,0,0,0,0,0,0],"split_type":[0,0,0,0,0,0,0,0,0,0,0,0,0,0,0,0,0,0,0,0,0,0,0,0,0,0,0,0,0,0,0,0,0,0,0,0,0,0,0,0,0,0,0,0,0,0,0,0,0,0,0,0,0,0,0,0,0,0,0,0,0,0,0,0,0,0,0,0,0,0,0,0,0,0,0,0,0,0,0,0,0,0,0,0,0],"sum_hessian":[2.795E2,1.6925E2,1.1025E2,5.6E1,1.1325E2,6.325E1,4.7E1,2.65E1,2.95E1,8.925E1,2.4E1,4.025E1,2.3E1,4.575E1,1.25E0,2.25E1,4E0,2.55E1,4E0,5.825E1,3.1E1,1.5E1,9E0,3.075E1,9.5E0,1.95E1,3.5E0,1.25E0,4.45E1,1.7E1,5.5E0,1E0,3E0,1.55E1,1E1,3E0,1E0,2.225E1,3.6E1,1.75E0,2.925E1,5E0,1E1,6.25E0,2.75E0,2.775E1,3E0,7.75E0,1.75E0,3E0,1.65E1,1E0,2.5E0,1.525E1,1.75E0,2E0,3.5E0,4.25E0,1.125E1,8.5E0,1.5E0,1.45E1,7.75E0,3.5E1,1E0,2.25E0,2.7E1,2.25E0,2.75E0,8.25E0,1.75E0,4.75E0,1.5E0,1.25E1,1.525E1,2E0,1E0,3.25E0,4.5E0,1.25E0,1.75E0,1.525E1,1.25E0,1E0,1.5E0],"tree_param":{"num_deleted":"0","num_feature":"33","num_nodes":"85","size_leaf_vector":"1"}},{"base_weights":[-6.782596E-4,5.424952E-1,-8.3789843E-1,-4.708308E-1,6.782793E-1,-5.383024E-1,-1.231291E0,-8.128789E-1,6.80627E-1,1.7063054E-1,8.622809E-1,-2.3719151E-1,-1.0293335E0,-6.802032E-1,-1.3154777E0,-1.0130404E0,2.6895505E-1,3.035611E-1,-6.003384E-2,-4.7047058E-1,6.897193E-1,7.291982E-1,4.7272784E-1,-3.9081892E-1,1.088257E0,-2.4510165E-1,-1.2603406E0,-1.0860572E0,2.1753295E-1,-1.3486683E0,-5.5593953E-2,1.6065788E-1,-1.257825E0,-7.4068177E-1,3.6004105E-1,2.589785E-2,1.035395E0,4.718916E-1,1.1858149E0,3.7921512E-1,-5.656748E-1,5.6190442E-2,4.1259572E-1,-7.3203915E-1,1.8457985E-1,-1.4134605E0,-2.151454E-1,-1.260241E-1,-3.7945572E-1,-2.724914E-2,-4.1670963E-1,-1.0877319E-2,-4.2201748E-1,3.6634784E-2,-3.5813102E-1,-1.4384794E-1,2.0943683E-1,4.4575527E-1,1.4094417E-1,2.815102E-1,-3.2843275E-3,1.9363275E-1,4.3152976E-1,2.391532E-1,-2.3448281E-1,-4.426622E-1,-8.9876525E-2,-3.4848204E-1,2.0930478E-3,-4.485829E-1,-1.390772E-1,8.773966E-2,-1.8766874E-1],"categories":[],"categories_nodes":[],"categories_segments":[],"categories_sizes":[],"default_left":[0,0,0,0,0,0,0,0,0,0,0,0,0,0,0,0,0,0,0,0,0,0,0,0,0,0,0,0,0,0,0,0,0,0,0,0,0,0,0,0,0,0,0,0,0,0,0,0,0,0,0,0,0,0,0,0,0,0,0,0,0,0,0,0,0,0,0,0,0,0,0,0,0],"id":1,"left_children":[1,3,5,7,9,11,13,15,17,19,21,23,25,27,29,31,-1,-1,-1,33,35,37,-1,39,41,43,45,47,-1,49,-1,-1,51,53,-1,55,57,59,61,63,65,-1,-1,67,-1,69,71,-1,-1,-1,-1,-1,-1,-1,-1,-1,-1,-1,-1,-1,-1,-1,-1,-1,-1,-1,-1,-1,-1,-1,-1,-1,-1],"loss_changes":[1.2303571E2,2.2897575E1,1.188446E1,8.422594E0,1.3407639E1,8.954142E0,1.204483E0,6.334814E0,1.6962626E0,1.3586641E1,8.940689E0,8.542428E0,3.9209938E0,5.388581E0,1.1822968E0,6.233387E0,0E0,0E0,0E0,9.206173E0,5.119399E0,1.018121E1,0E0,5.123444E0,8.81587E-1,3.1962314E0,2.5437279E0,2.616558E-1,0E0,1.7489471E0,0E0,0E0,2.306982E0,6.587393E0,0E0,3.2921937E0,3.0525608E0,1.3553757E1,3.4790344E0,4.1869454E0,6.848364E0,0E0,0E0,1.4817548E0,0E0,4.9903107E-1,9.023895E-1,0E0,0E0,0E0,0E0,0E0,0E0,0E0,0E0,0E0,0E0,0E0,0E0,0E0,0E0,0E0,0E0,0E0,0E0,0E0,0E0,0E0,0E0,0E0,0E0,0E0,0E0],"parents":[2147483647,0,0,1,1,2,2,3,3,4,4,5,5,6,6,7,7,8,8,9,9,10,10,11,11,12,12,13,13,14,14,15,15,19,19,20,20,21,21,23,23,24,24,25,25,26,26,27,27,29,29,32,32,33,33,35,35,36,36,37,37,38,38,39,39,40,40,43,43,45,45,46,46],"right_children":[2,4,6,8,10,12,14,16,18,20,22,24,26,28,30,32,-1,-1,-1,34,36,38,-1,40,42,44,46,48,-1,50,-1,-1,52,54,-1,56,58,60,62,64,66,-1,-1,68,-1,70,72,-1,-1,-1,-1,-1,-1,-1,-1,-1,-1,-1,-1,-1,-1,-1,-1,-1,-1,-1,-1,-1,-1,-1,-1,-1,-1],"split_conditions":[3E0,1.2E1,2E0,1E0,1E0,4E0,1E0,1E0,2.0270242E2,2.2E1,1E0,1E0,3.3E1,5.507E3,1.0366E4,2.5E1,2.6895505E-1,3.035611E-1,-6.003384E-2,4.1415198E2,1E0,3.1E1,4.7272784E-1,2.6E1,3.5E1,2.993E3,2E0,1E0,2.1753295E-1,2.4E1,-5.5593953E-2,1.6065788E-1,7.27E1,1E0,3.6004105E-1,1E0,4.795E3,1.1473333E2,1E0,4E0,1.2E1,5.6190442E-2,4.1259572E-1,4E0,1.8457985E-1,3.4301178E2,3.446E3,-1.260241E-1,-3.7945572E-1,-2.724914E-2,-4.1670963E-1,-1.0877319E-2,-4.2201748E-1,3.6634784E-2,-3.5813102E-1,-1.4384794E-1,2.0943683E-1,4.4575527E-1,1.4094417E-1,2.815102E-1,-3.2843275E-3,1.9363275E-1,4.3152976E-1,2.391532E-1,-2.3448281E-1,-4.426622E-1,-8.9876525E-2,-3.4848204E-1,2.0930478E-3,-4.485829E-1,-1.390772E-1,8.773966E-2,-1.8766874E-1],"split_indices":[8,0,11,30,29,5,9,12,2,0,28,27,3,1,1,3,0,0,0,2,8,0,0,3,3,1,7,26,0,3,0,0,2,11,0,28,1,2,31,8,0,0,0,4,0,2,1,0,0,0,0,0,0,0,0,0,0,0,0,0,0,0,0,0,0,0,0,0,0,0,0,0,0],"split_type":[0,0,0,0,0,0,0,0,0,0,0,0,0,0,0,0,0,0,0,0,0,0,0,0,0,0,0,0,0,0,0,0,0,0,0,0,0,0,0,0,0,0,0,0,0,0,0,0,0,0,0,0,0,0,0,0,0,0,0,0,0,0,0,0,0,0,0,0,0,0,0,0,0],"sum_hessian":[2.6855383E2,1.6309363E2,1.054602E2,1.8980316E1,1.4411331E2,6.1211628E1,4.424857E1,1.4860077E1,4.12024E0,3.8851593E1,1.0526172E2,3.8863026E1,2.2348604E1,7.0670724E0,3.7181496E1,1.3667099E1,1.1929777E0,2.8859553E0,1.2342848E0,1.7424772E1,2.142682E1,9.0418335E1,1.4843386E1,3.5458332E1,3.4046907E0,5.5541544E0,1.6794449E1,5.6597233E0,1.4073488E0,3.5932884E1,1.2486122E0,1.703378E0,1.1963721E1,1.5477942E1,1.9468296E0,7.7051272E0,1.3721693E1,5.913104E1,3.1287294E1,6.3454356E0,2.9112898E1,1.2219696E0,2.1827211E0,3.6420434E0,1.912111E0,1.4341146E1,2.4533026E0,1.9067936E0,3.75293E0,1.2182835E0,3.4714603E1,1.4349514E0,1.05287695E1,5.5809135E0,9.897029E0,4.5620227E0,3.1431046E0,6.732493E0,6.9892E0,2.95953E1,2.9535738E1,1.1099484E1,2.018781E1,4.895901E0,1.4495342E0,5.558976E0,2.355392E1,1.9416131E0,1.7004302E0,1.2675195E1,1.6659522E0,1.2252663E0,1.2280363E0],"tree_param":{"num_deleted":"0","num_feature":"33","num_nodes":"73","size_leaf_vector":"1"}},{"base_weights":[6.5503694E-4,4.253598E-1,-6.645226E-1,2.3125257E-1,9.476584E-1,-3.8993284E-1,-1.0303001E0,-1.718437E-1,6.3779557E-1,1.0227973E0,-1.2272488E-1,-6.334196E-1,1.9445816E-1,-1.134889E0,-3.767481E-1,-1.0179693E0,2.5336202E-2,9.269469E-1,1.161702E-1,6.4626396E-1,1.2943739E0,-8.0249035E-1,3.127285E-1,-3.5242486E-1,6.6145754E-1,-5.6081486E-1,-1.2397664E0,-6.5175545E-1,1.1076052E-1,-4.1762143E-1,-2.3854852E-1,5.602999E-1,-2.4347414E-1,1.044967E0,-2.5779906E-1,-4.92139E-1,9.0490663E-1,-3.4293684E-1,9.549551E-1,1.1262769E-1,3.97796E-1,-9.217018E-1,2.708251E-1,1.0983018E0,-7.033937E-1,3.8649106E-1,-8.829224E-1,1.0160911E0,-2.5137582E-1,1.4953567E-1,-8.2991207E-1,-5.6144107E-2,-1.2866695E0,8.662452E-2,-2.8878745E-1,1.8173206E-1,-2.9491502E-1,2.345552E-1,-1.8385406E-1,-2.2301324E-1,2.86905E-3,3.587229E-1,1.3014928E-1,-2.9803085E-1,3.638385E-1,-6.154088E-2,3.6075798E-1,-3.3734292E-1,2.0665766E-1,-1.2588514E-1,3.4113514E-1,-1.97144E-1,-3.730155E-1,3.397151E-1,-1.3352673E-1,1.0838223E-1,3.7514532E-1,-3.3404917E-2,-2.7527708E-1,-1.05869435E-1,3.468661E-1,-3.240598E-1,-5.4631487E-2,-5.547965E-3,4.6859914E-1,-2.8102696E-1,1.4545624E-1,-6.1793458E-2,-3.3722496E-1,-4.013693E-1,-1.6032577E-1],"categories":[],"categories_nodes":[],"categories_segments":[],"categories_sizes":[],"default_left":[0,0,0,0,0,0,0,0,0,0,0,0,0,0,0,0,0,0,0,0,0,0,0,0,0,0,0,0,0,0,0,0,0,0,0,0,0,0,0,0,0,0,0,0,0,0,0,0,0,0,0,0,0,0,0,0,0,0,0,0,0,0,0,0,0,0,0,0,0,0,0,0,0,0,0,0,0,0,0,0,0,0,0,0,0,0,0,0,0,0,0],"id":2,"left_children":[1,3,5,7,9,11,13,15,17,19,-1,21,23,25,27,29,31,33,35,37,39,41,43,45,47,49,51,53,-1,-1,55,57,59,61,-1,63,65,67,69,-1,-1,71,73,75,77,79,81,83,85,-1,87,-1,89,-1,-1,-1,-1,-1,-1,-1,-1,-1,-1,-1,-1,-1,-1,-1,-1,-1,-1,-1,-1,-1,-1,-1,-1,-1,-1,-1,-1,-1,-1,-1,-1,-1,-1,-1,-1,-1,-1],"loss_changes":[7.154728E1,1.5451403E1,9.510651E0,1.8793476E1,4.6549187E0,8.373399E0,2.423481E0,9.708555E0,8.485889E0,3.219246E0,0E0,6.835684E0,4.7837076E0,1.4396019E0,1.7281088E0,2.8732738E0,7.045277E0,8.595505E0,1.0743107E1,6.0122433E0,1.426239E-1,4.7539215E0,6.3283286E0,3.814077E0,3.4792004E0,2.4954498E0,1.1986427E0,1.9326365E0,0E0,0E0,3.5951476E0,4.7340126E0,4.140091E0,2.6787758E0,0E0,1.2114882E1,3.4505286E0,4.93846E0,4.096141E0,0E0,0E0,1.8986492E0,3.1513257E0,3.229952E-2,3.5997558E-1,2.911036E0,5.583663E-1,4.1916227E0,2.2647023E0,0E0,9.0625954E-1,0E0,3.5406494E-1,0E0,0E0,0E0,0E0,0E0,0E0,0E0,0E0,0E0,0E0,0E0,0E0,0E0,0E0,0E0,0E0,0E0,0E0,0E0,0E0,0E0,0E0,0E0,0E0,0E0,0E0,0E0,0E0,0E0,0E0,0E0,0E0,0E0,0E0,0E0,0E0,0E0,0E0],"parents":[2147483647,0,0,1,1,2,2,3,3,4,4,5,5,6,6,7,7,8,8,9,9,11,11,12,12,13,13,14,14,15,15,16,16,17,17,18,18,19,19,20,20,21,21,22,22,23,23,24,24,25,25,26,26,27,27,30,30,31,31,32,32,33,33,35,35,36,36,37,37,38,38,41,41,42,42,43,43,44,44,45,45,46,46,47,47,48,48,50,50,52,52],"right_children":[2,4,6,8,10,12,14,16,18,20,-1,22,24,26,28,30,32,34,36,38,40,42,44,46,48,50,52,54,-1,-1,56,58,60,62,-1,64,66,68,70,-1,-1,72,74,76,78,80,82,84,86,-1,88,-1,90,-1,-1,-1,-1,-1,-1,-1,-1,-1,-1,-1,-1,-1,-1,-1,-1,-1,-1,-1,-1,-1,-1,-1,-1,-1,-1,-1,-1,-1,-1,-1,-1,-1,-1,-1,-1,-1,-1],"split_conditions":[3E0,1E0,2E0,1E0,6.3E1,3.835E3,1E0,1.2E1,1.5064276E2,1E0,-1.2272488E-1,1E0,1E0,1E0,5.743E3,4E0,1E0,4E0,2.8E1,3E0,9E0,2.5E1,2E0,3E1,4E0,1.352E3,2.3E1,1.252E3,1.1076052E-1,-4.1762143E-1,2E0,4.7E1,1.86E3,2E0,-2.5779906E-1,1E0,1E0,1E0,1E0,1.1262769E-1,3.97796E-1,1.3116667E2,2.8E1,1.569E3,1.747E3,1E0,4.1E1,3.3E1,1E0,1.4953567E-1,3E0,-5.6144107E-2,1E0,8.662452E-2,-2.8878745E-1,1.8173206E-1,-2.9491502E-1,2.345552E-1,-1.8385406E-1,-2.2301324E-1,2.86905E-3,3.587229E-1,1.3014928E-1,-2.9803085E-1,3.638385E-1,-6.154088E-2,3.6075798E-1,-3.3734292E-1,2.0665766E-1,-1.2588514E-1,3.4113514E-1,-1.97144E-1,-3.730155E-1,3.397151E-1,-1.3352673E-1,1.0838223E-1,3.7514532E-1,-3.3404917E-2,-2.7527708E-1,-1.05869435E-1,3.468661E-1,-3.240598E-1,-5.4631487E-2,-5.547965E-3,4.6859914E-1,-2.8102696E-1,1.4545624E-1,-6.1793458E-2,-3.3722496E-1,-4.013693E-1,-1.6032577E-1],"split_indices":[8,23,9,22,3,1,23,0,2,26,0,14,13,25,1,5,11,10,0,4,0,0,6,3,5,1,3,1,0,0,9,3,1,6,0,21,31,16,10,0,0,2,0,1,1,22,3,3,29,0,5,0,18,0,0,0,0,0,0,0,0,0,0,0,0,0,0,0,0,0,0,0,0,0,0,0,0,0,0,0,0,0,0,0,0,0,0,0,0,0,0],"split_type":[0,0,0,0,0,0,0,0,0,0,0,0,0,0,0,0,0,0,0,0,0,0,0,0,0,0,0,0,0,0,0,0,0,0,0,0,0,0,0,0,0,0,0,0,0,0,0,0,0,0,0,0,0,0,0,0,0,0,0,0,0,0,0,0,0,0,0,0,0,0,0,0,0,0,0,0,0,0,0,0,0,0,0,0,0,0,0,0,0,0,0],"sum_hessian":[2.5126048E2,1.5356947E2,9.7691E1,1.13012314E2,4.0557167E1,5.6981186E1,4.0709816E1,5.703659E1,5.597572E1,3.866212E1,1.8950444E0,4.0163258E1,1.681793E1,3.4458828E1,6.250986E0,9.992931E0,4.704366E1,3.55129E1,2.0462818E1,1.7616713E1,2.1045408E1,3.4203194E1,5.9600635E0,7.85943E0,8.958501E0,6.3033123E0,2.8155518E1,4.659467E0,1.5915191E0,6.2209835E0,3.7719479E0,1.5370406E1,3.1673254E1,3.370125E1,1.8116544E0,1.176509E1,8.697728E0,4.1635804E0,1.3453133E1,1.1281137E0,1.9917294E1,3.0911192E1,3.2920003E0,3.3157508E0,2.6443126E0,3.3979588E0,4.461471E0,6.3704705E0,2.5880303E0,1.1042516E0,5.1990604E0,1.4139177E0,2.67416E1,1.175194E0,3.4842732E0,1.8547994E0,1.9171486E0,1.3209343E1,2.1610632E0,9.993062E0,2.1680191E1,2.626477E1,7.4364786E0,9.414335E0,2.3507547E0,1.9046469E0,6.793081E0,2.317985E0,1.8455955E0,1.4216903E0,1.2031443E1,1.86314E1,1.2279794E1,1.2300183E0,2.0619822E0,1.1448995E0,2.1708515E0,1.1063062E0,1.5380065E0,2.009345E0,1.3886137E0,3.059027E0,1.4024441E0,2.534081E0,3.8363895E0,1.1992447E0,1.3887857E0,2.2106001E0,2.9884605E0,2.4307722E1,2.4338777E0],"tree_param":{"num_deleted":"0","num_feature":"33","num_nodes":"91","size_leaf_vector":"1"}},{"base_weights":[-1.5451331E-3,3.4780344E-1,-5.589395E-1,5.000398E-1,-1.3889842E-1,-5.0840985E-2,-7.998679E-1,2.4753504E-1,8.1939083E-1,9.006995E-1,-3.214717E-1,5.850594E-1,-3.2263842E-1,-9.2944604E-1,-1.2539941E-1,-4.7566112E-2,8.0701214E-1,8.828613E-1,-3.1977287E-1,3.6356997E-1,2.8275096E-1,-4.2934892E-1,3.2799911E-1,-1.6626635E-1,9.487145E-1,-8.8093907E-1,4.6253785E-2,-1.005919E0,-1.5355569E-1,7.106804E-1,-9.290912E-1,-3.8813046E-1,3.3279952E-1,8.988244E-1,-1.3867328E-1,6.150712E-1,1.0837612E0,1.0145209E-1,-2.4366221E-1,-9.582454E-2,2.3030947E-1,-5.6262934E-1,2.4494445E-1,4.1043562E-1,1.8653753E-1,-3.19742E-1,-3.0267093E-2,7.113038E-1,-3.1976712E-1,-1.103454E0,-4.6857056E-1,3.3606514E-1,-2.0912117E-1,9.9177665E-1,-1.00819655E-1,-3.9639184E-1,-3.6993042E-1,-2.0657617E-1,1.3211548E-1,2.144183E-1,-7.273519E-2,1.1666529E-1,3.449418E-1,2.6998505E-1,-1.2524286E-1,-3.245678E-2,3.4267578E-1,-2.3901905E-1,5.7504173E-2,-1.3351004E-1,2.6320565E-1,3.0541372E-1,-5.412798E-2,-2.1206123E-1,1.4363813E-1,-2.2102375E-1,-3.6401516E-1,3.981513E-3,-2.9974133E-1,-1.0137255E-1,2.579323E-1,-2.5456767E-3,3.8326177E-1,-2.6206052E-1,9.604934E-2],"categories":[],"categories_nodes":[],"categories_segments":[],"categories_sizes":[],"default_left":[0,0,0,0,0,0,0,0,0,0,0,0,0,0,0,0,0,0,0,0,0,0,0,0,0,0,0,0,0,0,0,0,0,0,0,0,0,0,0,0,0,0,0,0,0,0,0,0,0,0,0,0,0,0,0,0,0,0,0,0,0,0,0,0,0,0,0,0,0,0,0,0,0,0,0,0,0,0,0,0,0,0,0,0,0],"id":3,"left_children":[1,3,5,7,9,11,13,15,17,19,21,23,25,27,29,31,33,35,37,-1,39,41,-1,-1,43,45,47,49,51,53,55,57,59,61,-1,63,65,-1,-1,-1,-1,67,-1,-1,69,-1,-1,71,73,75,77,79,-1,81,-1,83,-1,-1,-1,-1,-1,-1,-1,-1,-1,-1,-1,-1,-1,-1,-1,-1,-1,-1,-1,-1,-1,-1,-1,-1,-1,-1,-1,-1,-1],"loss_changes":[4.5439037E1,1.0698042E1,1.0964916E1,8.625925E0,6.9252777E0,5.3713984E0,5.2074394E0,1.0369726E1,3.7464638E0,7.122636E-1,5.120739E0,4.3930426E0,4.499944E0,2.8683052E0,8.033811E0,5.558318E0,2.9400597E0,1.7892647E0,1.3317633E0,0E0,1.1626313E0,5.2803903E0,0E0,0E0,2.1245022E0,1.141891E0,3.6322951E0,1.9039764E0,1.7646481E0,2.0825026E0,4.8748827E-1,5.9227095E0,4.6414337E0,2.1819744E0,0E0,6.8115025E0,1.8504772E0,0E0,0E0,0E0,0E0,4.8888054E0,0E0,0E0,2.0485187E0,0E0,0E0,1.6267047E0,3.3406343E0,6.523781E-1,2.2718282E0,1.596543E0,0E0,1.4227295E0,0E0,1.5324379E0,0E0,0E0,0E0,0E0,0E0,0E0,0E0,0E0,0E0,0E0,0E0,0E0,0E0,0E0,0E0,0E0,0E0,0E0,0E0,0E0,0E0,0E0,0E0,0E0,0E0,0E0,0E0,0E0,0E0],"parents":[2147483647,0,0,1,1,2,2,3,3,4,4,5,5,6,6,7,7,8,8,9,9,10,10,11,11,12,12,13,13,14,14,15,15,16,16,17,17,18,18,20,20,21,21,24,24,25,25,26,26,27,27,28,28,29,29,30,30,31,31,32,32,33,33,35,35,36,36,41,41,44,44,47,47,48,48,49,49,50,50,51,51,53,53,55,55],"right_children":[2,4,6,8,10,12,14,16,18,20,22,24,26,28,30,32,34,36,38,-1,40,42,-1,-1,44,46,48,50,52,54,56,58,60,62,-1,64,66,-1,-1,-1,-1,68,-1,-1,70,-1,-1,72,74,76,78,80,-1,82,-1,84,-1,-1,-1,-1,-1,-1,-1,-1,-1,-1,-1,-1,-1,-1,-1,-1,-1,-1,-1,-1,-1,-1,-1,-1,-1,-1,-1,-1,-1],"split_conditions":[4E0,2E0,1E0,1E0,2.3E1,3.1E1,1E0,1E0,3E0,1E0,4.4747406E2,1E0,1.3E1,6.85E3,2.4E1,1E0,3E0,2.2E1,1E0,3.6356997E-1,1E0,1E0,3.2799911E-1,-1.6626635E-1,1.16666664E2,1E0,3E0,1E0,6E0,1.3727924E2,2E0,4.222E3,3E1,3E0,-1.3867328E-1,2.511E3,1E0,1.0145209E-1,-2.4366221E-1,-9.582454E-2,2.3030947E-1,3.1E1,2.4494445E-1,4.1043562E-1,1E0,-3.19742E-1,-3.0267093E-2,5E0,1E0,3E0,3.7E1,1E0,-2.0912117E-1,1.517E3,-1.00819655E-1,1E0,-3.6993042E-1,-2.0657617E-1,1.3211548E-1,2.144183E-1,-7.273519E-2,1.1666529E-1,3.449418E-1,2.6998505E-1,-1.2524286E-1,-3.245678E-2,3.4267578E-1,-2.3901905E-1,5.7504173E-2,-1.3351004E-1,2.6320565E-1,3.0541372E-1,-5.412798E-2,-2.1206123E-1,1.4363813E-1,-2.2102375E-1,-3.6401516E-1,3.981513E-3,-2.9974133E-1,-1.0137255E-1,2.579323E-1,-2.5456767E-3,3.8326177E-1,-2.6206052E-1,9.604934E-2],"split_indices":[10,11,11,22,3,3,14,23,6,31,2,29,0,1,0,16,8,0,15,0,18,24,0,0,2,27,5,28,10,2,9,1,3,4,0,1,10,0,0,0,0,0,0,0,31,0,0,8,30,4,3,16,0,1,0,22,0,0,0,0,0,0,0,0,0,0,0,0,0,0,0,0,0,0,0,0,0,0,0,0,0,0,0,0,0],"split_type":[0,0,0,0,0,0,0,0,0,0,0,0,0,0,0,0,0,0,0,0,0,0,0,0,0,0,0,0,0,0,0,0,0,0,0,0,0,0,0,0,0,0,0,0,0,0,0,0,0,0,0,0,0,0,0,0,0,0,0,0,0,0,0,0,0,0,0,0,0,0,0,0,0,0,0,0,0,0,0,0,0,0,0,0,0],"sum_hessian":[2.3135152E2,1.4244789E2,8.890362E1,1.08486725E2,3.396117E1,2.8985846E1,5.9917774E1,6.1575367E1,4.6911358E1,4.485686E0,2.9475485E1,8.33429E0,2.0651556E1,4.994446E1,9.973313E0,4.0911316E1,2.0664053E1,4.464867E1,2.2626872E0,2.3440502E0,2.1416357E0,2.803442E1,1.4410654E0,1.8897955E0,6.444494E0,7.664156E0,1.29874E1,4.5193638E1,4.7508225E0,4.9448843E0,5.028429E0,2.157421E1,1.9337105E1,1.9542301E1,1.1217524E0,2.087922E1,2.376945E1,1.1026661E0,1.1600212E0,1.1076237E0,1.034012E0,2.5820501E1,2.2139175E0,3.6441877E0,2.800306E0,5.899639E0,1.7645172E0,4.2755322E0,8.711867E0,3.735902E1,7.8346205E0,2.700122E0,2.0507007E0,3.9394796E0,1.0054048E0,2.6641212E0,2.3643076E0,1.5956543E1,5.617666E0,1.1475601E1,7.8615046E0,7.2867174E0,1.2255584E1,1.6464966E1,4.4142528E0,1.0721095E0,2.269734E1,1.966211E1,6.1583934E0,1.6487427E0,1.1515635E0,3.075838E0,1.1996942E0,5.9448915E0,2.766976E0,1.0392676E1,2.6966343E1,4.6167965E0,3.2178245E0,1.3358122E0,1.3643098E0,1.0909841E0,2.8484955E0,1.4677178E0,1.1964034E0],"tree_param":{"num_deleted":"0","num_feature":"33","num_nodes":"85","size_leaf_vector":"1"}},{"base_weights":[1.7342138E-3,2.8151077E-1,-4.57385E-1,7.410679E-2,5.321255E-1,-3.435336E-2,-6.685278E-1,-3.2556728E-2,8.766259E-1,2.3745643E-1,3.8030386E-1,1.1158952E-1,-2.6695675E-1,-3.6687016E-1,-9.2978346E-1,1.3799007E-1,-7.5511223E-1,1.0788052E0,2.5733323E-3,7.111135E-1,-1.2806511E-1,7.953801E-1,-4.320412E-2,-4.992703E-1,6.451619E-1,-2.2514161E-1,-9.8787236E-1,-1.5469605E-2,7.0041674E-1,-1.16132E0,3.699552E-1,3.5285833E-1,8.2122736E-2,-1.974027E-1,8.6636436E-1,-9.231707E-1,1.03965916E-1,7.2435685E-2,3.322589E-1,-3.6611345E-1,5.244351E-1,-7.021143E-1,1.635011E-1,1.2099177E-3,2.877927E-1,-2.0382942E-1,7.429206E-2,1.0657493E-2,-1.036812E0,-7.829097E-2,9.74821E-2,-4.885407E-2,2.6904413E-1,-4.1228208E-1,-1.6960546E-1,-1.321041E-1,2.5321406E-1,3.0241078E-1,-1.5459086E-1,-4.808217E-3,-3.3844364E-1,-6.289467E-2,2.753811E-1,1.08498424E-1,-1.6271853E-1,-5.6935076E-2,2.5465482E-1,-2.8184554E-1,-6.0743548E-2,-1.5754884E-1,1.936888E-1,-6.348787E-2,-3.279519E-1],"categories":[],"categories_nodes":[],"categories_segments":[],"categories_sizes":[],"default_left":[0,0,0,0,0,0,0,0,0,0,0,0,0,0,0,0,0,0,0,0,0,0,0,0,0,0,0,0,0,0,0,0,0,0,0,0,0,0,0,0,0,0,0,0,0,0,0,0,0,0,0,0,0,0,0,0,0,0,0,0,0,0,0,0,0,0,0,0,0,0,0,0,0],"id":4,"left_children":[1,3,5,7,9,11,13,15,17,19,-1,21,-1,23,25,27,29,31,-1,33,35,37,39,41,43,45,47,49,51,53,55,-1,-1,-1,57,59,61,-1,-1,63,65,67,69,-1,-1,-1,-1,-1,71,-1,-1,-1,-1,-1,-1,-1,-1,-1,-1,-1,-1,-1,-1,-1,-1,-1,-1,-1,-1,-1,-1,-1,-1],"loss_changes":[2.7665031E1,6.916379E0,7.2611904E0,6.395843E0,1.27982235E1,3.6209338E0,3.9418297E0,8.314035E0,1.528575E0,7.7747364E0,0E0,2.6788285E0,0E0,3.9230554E0,9.4296646E-1,4.735919E0,6.3144336E0,2.3462868E-1,0E0,4.71142E0,4.8736963E0,5.389068E-1,4.099998E0,3.3855367E0,7.101941E-1,9.1214794E-1,1.3394165E0,3.7609558E0,2.1393623E0,4.5442486E-1,1.9752457E0,0E0,0E0,0E0,4.02927E0,1.0885267E0,5.539308E0,0E0,0E0,2.0152066E0,2.0475993E0,2.041399E0,2.501268E0,0E0,0E0,0E0,0E0,0E0,9.2456245E-1,0E0,0E0,0E0,0E0,0E0,0E0,0E0,0E0,0E0,0E0,0E0,0E0,0E0,0E0,0E0,0E0,0E0,0E0,0E0,0E0,0E0,0E0,0E0,0E0],"parents":[2147483647,0,0,1,1,2,2,3,3,4,4,5,5,6,6,7,7,8,8,9,9,11,11,13,13,14,14,15,15,16,16,17,17,19,19,20,20,21,21,22,22,23,23,24,24,25,25,26,26,27,27,28,28,29,29,30,30,34,34,35,35,36,36,39,39,40,40,41,41,42,42,48,48],"right_children":[2,4,6,8,10,12,14,16,18,20,-1,22,-1,24,26,28,30,32,-1,34,36,38,40,42,44,46,48,50,52,54,56,-1,-1,-1,58,60,62,-1,-1,64,66,68,70,-1,-1,-1,-1,-1,72,-1,-1,-1,-1,-1,-1,-1,-1,-1,-1,-1,-1,-1,-1,-1,-1,-1,-1,-1,-1,-1,-1,-1,-1],"split_conditions":[4E0,1E0,1E0,8.096E3,1E0,7E0,2E0,2.0580556E2,1E0,1.0838461E2,3.8030386E-1,1E0,-2.6695675E-1,5.1E1,2E0,1E0,3.9993332E2,1.1998E4,2.5733323E-3,6.53E2,2E0,3E0,1E0,1E0,1E0,2.333E3,2.3E1,1E0,1E0,3E0,1.2E1,3.5285833E-1,8.2122736E-2,-1.974027E-1,1E0,1E0,2.5E1,7.2435685E-2,3.322589E-1,1.158E3,1E0,3.345E3,1.943E3,1.2099177E-3,2.877927E-1,-2.0382942E-1,7.429206E-2,1.0657493E-2,8.02E2,-7.829097E-2,9.74821E-2,-4.885407E-2,2.6904413E-1,-4.1228208E-1,-1.6960546E-1,-1.321041E-1,2.5321406E-1,3.0241078E-1,-1.5459086E-1,-4.808217E-3,-3.3844364E-1,-6.289467E-2,2.753811E-1,1.08498424E-1,-1.6271853E-1,-5.6935076E-2,2.5465482E-1,-2.8184554E-1,-6.0743548E-2,-1.5754884E-1,1.936888E-1,-6.348787E-2,-3.279519E-1],"split_indices":[10,16,11,1,17,10,9,2,27,2,0,25,0,3,4,23,2,1,0,1,5,4,16,28,21,1,3,22,25,4,0,0,0,0,20,11,0,0,0,1,13,1,1,0,0,0,0,0,1,0,0,0,0,0,0,0,0,0,0,0,0,0,0,0,0,0,0,0,0,0,0,0,0],"split_type":[0,0,0,0,0,0,0,0,0,0,0,0,0,0,0,0,0,0,0,0,0,0,0,0,0,0,0,0,0,0,0,0,0,0,0,0,0,0,0,0,0,0,0,0,0,0,0,0,0,0,0,0,0,0,0,0,0,0,0,0,0,0,0,0,0,0,0,0,0,0,0,0,0],"sum_hessian":[2.1337216E2,1.3282098E2,8.055117E1,7.338481E1,5.9436176E1,2.7205917E1,5.3345257E1,6.562232E1,7.7624884E0,4.3380436E1,1.6055738E1,2.3983976E1,3.2219405E0,2.5874104E1,2.7471151E1,5.3745617E1,1.1876705E1,6.09913E0,1.6633582E0,1.8483421E1,2.4897017E1,3.663294E0,2.0320683E1,2.3328762E1,2.5453427E0,2.4635148E0,2.5007637E1,4.2988564E1,1.0757055E1,8.702447E0,3.1742578E0,5.029687E0,1.0694433E0,1.5526434E0,1.6930779E1,4.951377E0,1.9945639E1,1.9595215E0,1.7037724E0,1.3178779E1,7.141904E0,1.7816565E1,5.512197E0,1.1701249E0,1.3752179E0,1.0334213E0,1.4300935E0,1.1538156E0,2.385382E1,2.5111652E1,1.7876911E1,2.0253682E0,8.731687E0,5.449324E0,3.253123E0,1.1979454E0,1.9763124E0,1.5601475E1,1.3293029E0,1.1113113E0,3.8400655E0,1.49341135E1,5.011526E0,2.3646722E0,1.0814106E1,2.360378E0,4.781526E0,1.1481504E1,6.33506E0,2.2331471E0,3.2790499E0,1.8290722E0,2.202475E1],"tree_param":{"num_deleted":"0","num_feature":"33","num_nodes":"73","size_leaf_vector":"1"}},{"base_weights":[3.1916266E-3,2.3072267E-1,-3.744535E-1,3.6662072E-2,5.04837E-1,-2.0091496E-1,-6.704754E-1,-2.942474E-1,1.9508076E-1,2.3884784E-1,3.5009807E-1,-4.699084E-1,4.9182303E-2,-7.1232337E-1,4.0896915E-2,-7.45832E-2,-7.620491E-1,3.9929458E-1,-3.4754124E-1,-4.15945E-1,3.8644788E-1,-7.0624626E-1,9.859163E-2,-9.388479E-2,3.4804255E-1,-1.8398637E-1,-7.822388E-1,2.4123292E-1,-2.2206225E-1,2.5631411E-2,-9.738464E-1,-1.9599931E-1,4.6992108E-1,-6.3155884E-1,5.811935E-1,1.9359851E-1,-9.1954803E-1,7.182862E-1,2.8808393E-2,-2.2611213E-1,-8.8100815E-1,6.965671E-1,-6.0194516E-1,1.7155123E-1,-7.757016E-1,-2.17153E-1,1.0518079E-1,-9.3289953E-1,-4.992819E-1,1.0650875E-1,-1.9509049E-1,-1.0958577E-1,-3.6370644E-1,1.6678044E-1,-9.128838E-3,-2.911657E-1,7.965175E-2,2.4489501E-1,6.891778E-4,-3.9213535E-1,3.4614217E-2,2.9426593E-1,3.683255E-2,-1.1235625E-1,1.544674E-1,-2.0005812E-1,9.836558E-2,-3.2684425E-1,-1.23228036E-1,2.9823777E-1,1.42024E-3,-2.8097802E-1,4.260771E-2,-1.4498496E-1,1.5280835E-1,-6.0194958E-2,-3.0882448E-1,-6.839536E-2,-2.943957E-1,-2.1216324E-1,1.8569517E-1],"categories":[],"categories_nodes":[],"categories_segments":[],"categories_sizes":[],"default_left":[0,0,0,0,0,0,0,0,0,0,0,0,0,0,0,0,0,0,0,0,0,0,0,0,0,0,0,0,0,0,0,0,0,0,0,0,0,0,0,0,0,0,0,0,0,0,0,0,0,0,0,0,0,0,0,0,0,0,0,0,0,0,0,0,0,0,0,0,0,0,0,0,0,0,0,0,0,0,0,0,0],"id":5,"left_children":[1,3,5,7,9,11,13,15,17,19,-1,21,23,25,-1,27,29,31,33,35,37,39,41,43,-1,45,47,-1,49,-1,51,-1,53,55,57,-1,59,61,63,65,67,69,71,73,75,-1,-1,77,79,-1,-1,-1,-1,-1,-1,-1,-1,-1,-1,-1,-1,-1,-1,-1,-1,-1,-1,-1,-1,-1,-1,-1,-1,-1,-1,-1,-1,-1,-1,-1,-1],"loss_changes":[1.712457E1,6.596585E0,3.7146864E0,3.930788E0,8.786113E0,3.297183E0,1.0176687E0,2.4422479E0,5.7423067E0,3.8309722E0,0E0,3.2327704E0,4.2612295E0,8.195095E-1,0E0,2.4667683E0,1.45856E0,3.0730605E0,4.155428E0,4.5843334E0,3.718659E0,1.2064323E0,3.682853E0,4.4891205E0,0E0,1.5108161E0,5.030451E-1,0E0,4.1611233E0,0E0,4.5864582E-1,0E0,1.5425191E0,3.7480674E0,5.268165E-1,0E0,2.3474846E0,2.4288816E0,3.3701205E0,1.6386642E0,7.2264767E-1,9.5596194E-1,1.1597961E0,4.2597127E0,8.039026E-1,0E0,0E0,2.4314213E-1,2.7740252E0,0E0,0E0,0E0,0E0,0E0,0E0,0E0,0E0,0E0,0E0,0E0,0E0,0E0,0E0,0E0,0E0,0E0,0E0,0E0,0E0,0E0,0E0,0E0,0E0,0E0,0E0,0E0,0E0,0E0,0E0,0E0,0E0],"parents":[2147483647,0,0,1,1,2,2,3,3,4,4,5,5,6,6,7,7,8,8,9,9,11,11,12,12,13,13,15,15,16,16,17,17,18,18,19,19,20,20,21,21,22,22,23,23,25,25,26,26,28,28,30,30,32,32,33,33,34,34,36,36,37,37,38,38,39,39,40,40,41,41,42,42,43,43,44,44,47,47,48,48],"right_children":[2,4,6,8,10,12,14,16,18,20,-1,22,24,26,-1,28,30,32,34,36,38,40,42,44,-1,46,48,-1,50,-1,52,-1,54,56,58,-1,60,62,64,66,68,70,72,74,76,-1,-1,78,80,-1,-1,-1,-1,-1,-1,-1,-1,-1,-1,-1,-1,-1,-1,-1,-1,-1,-1,-1,-1,-1,-1,-1,-1,-1,-1,-1,-1,-1,-1,-1,-1],"split_conditions":[3E0,1E0,2E0,1E0,1E0,1E0,1E0,2E0,2E0,2E0,3.5009807E-1,1E0,1E0,2E0,4.0896915E-2,7.27E1,2.6E1,1E1,1E0,1E0,4E0,1E0,2.4E1,2E0,3.4804255E-1,1E0,2E0,2.4123292E-1,3E0,2.5631411E-2,1E0,-1.9599931E-1,2E0,1E0,1.1962393E2,1.9359851E-1,3.1E1,2E0,1.9E1,1.8750685E2,4E0,2E0,4.716E3,1.778E3,1.3E1,-2.17153E-1,1.0518079E-1,9E2,1E0,1.0650875E-1,-1.9509049E-1,-1.0958577E-1,-3.6370644E-1,1.6678044E-1,-9.128838E-3,-2.911657E-1,7.965175E-2,2.4489501E-1,6.891778E-4,-3.9213535E-1,3.4614217E-2,2.9426593E-1,3.683255E-2,-1.1235625E-1,1.544674E-1,-2.0005812E-1,9.836558E-2,-3.2684425E-1,-1.23228036E-1,2.9823777E-1,1.42024E-3,-2.8097802E-1,4.260771E-2,-1.4498496E-1,1.5280835E-1,-6.0194958E-2,-3.0882448E-1,-6.839536E-2,-2.943957E-1,-2.1216324E-1,1.8569517E-1],"split_indices":[8,16,11,29,17,13,19,11,8,5,0,14,15,5,0,2,3,0,18,11,5,25,0,9,0,31,6,0,5,0,9,0,7,27,2,0,0,8,0,2,8,6,1,1,0,0,0,1,13,0,0,0,0,0,0,0,0,0,0,0,0,0,0,0,0,0,0,0,0,0,0,0,0,0,0,0,0,0,0,0,0],"split_type":[0,0,0,0,0,0,0,0,0,0,0,0,0,0,0,0,0,0,0,0,0,0,0,0,0,0,0,0,0,0,0,0,0,0,0,0,0,0,0,0,0,0,0,0,0,0,0,0,0,0,0,0,0,0,0,0,0,0,0,0,0,0,0,0,0,0,0,0,0,0,0,0,0,0,0,0,0,0,0,0,0],"sum_hessian":[1.9728897E2,1.2335605E2,7.3932915E1,7.288822E1,5.046783E1,4.766734E1,2.6265575E1,2.3319784E1,4.9568436E1,3.6975456E1,1.3492375E1,2.2542614E1,2.5124727E1,2.5081707E1,1.1838677E0,1.6657436E1,6.662348E0,3.6206417E1,1.3362017E1,6.4671984E0,3.0508257E1,1.57519045E1,6.7907085E0,2.3069391E1,2.055337E0,3.355606E0,2.17261E1,1.7540842E0,1.4903353E1,1.4513823E0,5.2109656E0,1.7577782E0,3.444864E1,1.0477774E1,2.8842425E0,1.9906849E0,4.476514E0,1.5301885E1,1.5206371E1,4.8155837E0,1.0936321E1,3.666589E0,3.1241195E0,1.7143642E1,5.925748E0,1.4934356E0,1.8621705E0,1.2678465E1,9.047636E0,6.4211826E0,8.48217E0,2.1800508E0,3.0309148E0,2.930058E1,5.1480618E0,7.544753E0,2.933021E0,1.7594872E0,1.1247554E0,3.0655103E0,1.4110035E0,1.0170089E1,5.1317964E0,8.436044E0,6.770328E0,2.5684536E0,2.24713E0,6.6648207E0,4.2715006E0,2.2583313E0,1.4082576E0,1.9762596E0,1.1478599E0,5.687656E0,1.1455987E1,2.3623154E0,3.5634327E0,1.1817956E0,1.1496669E1,7.9390435E0,1.1085926E0],"tree_param":{"num_deleted":"0","num_feature":"33","num_nodes":"81","size_leaf_vector":"1"}},{"base_weights":[-1.3064664E-3,1.8083178E-1,-3.1034565E-1,1.0211928E-1,8.624634E-1,-1.5741709E-1,-5.7192135E-1,2.6675516E-1,-2.7109966E-1,9.623334E-1,2.5441067E-3,-3.3858454E-1,2.2048865E-1,-7.956738E-2,-8.1235075E-1,-5.5841785E-2,4.3504724E-1,-4.1178295E-1,2.4160813E-1,3.209775E-1,6.910331E-2,-1.2136373E-1,-7.42427E-1,-8.3077356E-2,6.757081E-1,5.293897E-1,-4.2121363E-1,-9.747456E-1,-2.0112248E-1,-3.669924E-1,2.2874017E-1,7.234077E-1,2.0129117E-1,5.5179816E-1,-6.035398E-1,-6.1750025E-1,2.4471831E-1,-2.9403704E-1,-2.2342032E-1,5.8298576E-1,-4.236361E-1,1.0766609E-1,9.698527E-1,-6.598687E-2,2.8169754E-1,-5.5199194E-1,3.3034857E-2,-3.6606485E-1,-3.192266E-1,1.19139016E-1,-1.8415357E-1,-1.7370206E-1,4.3023515E-2,1.7248954E-1,-3.0807389E-2,-9.244597E-2,2.5791356E-1,-2.1224335E-1,1.4964652E-1,2.322909E-1,6.844146E-5,-2.3978254E-1,9.841328E-2,4.6181656E-2,-2.4991271E-1,1.5863249E-1,-7.6832525E-2,6.722298E-2,-1.6977842E-1,2.645562E-1,-8.94581E-3,-2.4678653E-1,-3.343329E-3,2.2997029E-1,-1.7060158E-1,3.5000044E-1,1.0682326E-1,-2.1930446E-1,-1.8800156E-2,-1.9290078E-1,3.551831E-2],"categories":[],"categories_nodes":[],"categories_segments":[],"categories_sizes":[],"default_left":[0,0,0,0,0,0,0,0,0,0,0,0,0,0,0,0,0,0,0,0,0,0,0,0,0,0,0,0,0,0,0,0,0,0,0,0,0,0,0,0,0,0,0,0,0,0,0,0,0,0,0,0,0,0,0,0,0,0,0,0,0,0,0,0,0,0,0,0,0,0,0,0,0,0,0,0,0,0,0,0,0],"id":6,"left_children":[1,3,5,7,9,11,13,15,17,19,-1,21,23,25,27,29,31,33,-1,-1,-1,35,37,39,41,43,45,47,49,51,53,55,57,59,61,63,65,-1,67,69,71,73,75,-1,-1,77,-1,79,-1,-1,-1,-1,-1,-1,-1,-1,-1,-1,-1,-1,-1,-1,-1,-1,-1,-1,-1,-1,-1,-1,-1,-1,-1,-1,-1,-1,-1,-1,-1,-1,-1],"loss_changes":[1.0445489E1,6.1766143E0,2.6626315E0,6.5738325E0,1.011301E0,3.1421473E0,2.8957338E0,4.037766E0,5.311599E0,5.956745E-1,0E0,2.6012273E0,2.1461701E0,2.1607141E0,1.4610329E0,2.4065857E0,3.136754E0,5.8290896E0,0E0,0E0,0E0,3.9915757E0,1.0806904E0,2.5071769E0,9.2488194E-1,1.3699679E0,5.1406825E-1,3.1362247E-1,1.4201523E0,1.480523E0,1.7018158E0,3.276123E0,7.999339E0,6.6982543E-1,4.8728685E0,1.6682215E0,1.9682415E0,0E0,8.3255494E-1,7.2077584E-1,1.1712273E0,1.8737962E0,5.9776306E-2,0E0,0E0,4.2733538E-1,0E0,5.026902E-1,0E0,0E0,0E0,0E0,0E0,0E0,0E0,0E0,0E0,0E0,0E0,0E0,0E0,0E0,0E0,0E0,0E0,0E0,0E0,0E0,0E0,0E0,0E0,0E0,0E0,0E0,0E0,0E0,0E0,0E0,0E0,0E0,0E0],"parents":[2147483647,0,0,1,1,2,2,3,3,4,4,5,5,6,6,7,7,8,8,9,9,11,11,12,12,13,13,14,14,15,15,16,16,17,17,21,21,22,22,23,23,24,24,25,25,26,26,27,27,28,28,29,29,30,30,31,31,32,32,33,33,34,34,35,35,36,36,38,38,39,39,40,40,41,41,42,42,45,45,47,47],"right_children":[2,4,6,8,10,12,14,16,18,20,-1,22,24,26,28,30,32,34,-1,-1,-1,36,38,40,42,44,46,48,50,52,54,56,58,60,62,64,66,-1,68,70,72,74,76,-1,-1,78,-1,80,-1,-1,-1,-1,-1,-1,-1,-1,-1,-1,-1,-1,-1,-1,-1,-1,-1,-1,-1,-1,-1,-1,-1,-1,-1,-1,-1,-1,-1,-1,-1,-1,-1],"split_conditions":[3E0,1E0,2E0,2E0,1E0,3.835E3,3.4E1,1.6E1,4.3E1,3.7E1,2.5441067E-3,1.3116667E2,1E0,1.5E1,2E0,1E0,3.148E3,6.0333332E1,2.4160813E-1,3.209775E-1,6.910331E-2,9.302778E1,1E0,2.2E1,2E0,4E0,2.12625E2,3.6E1,1.559E3,1E0,1.288E3,1.204E3,4.222E3,2E0,7.13E3,1E0,3.4E1,-2.9403704E-1,2.319E3,5.045E3,2.9E1,1E0,8.072E3,-6.598687E-2,2.8169754E-1,3.1E1,3.3034857E-2,1.9E1,-3.192266E-1,1.19139016E-1,-1.8415357E-1,-1.7370206E-1,4.3023515E-2,1.7248954E-1,-3.0807389E-2,-9.244597E-2,2.5791356E-1,-2.1224335E-1,1.4964652E-1,2.322909E-1,6.844146E-5,-2.3978254E-1,9.841328E-2,4.6181656E-2,-2.4991271E-1,1.5863249E-1,-7.6832525E-2,6.722298E-2,-1.6977842E-1,2.645562E-1,-8.94581E-3,-2.4678653E-1,-3.343329E-3,2.2997029E-1,-1.7060158E-1,3.5000044E-1,1.0682326E-1,-2.1930446E-1,-1.8800156E-2,-1.9290078E-1,3.551831E-2],"split_indices":[8,12,9,9,24,1,3,0,0,0,0,2,22,0,7,16,1,2,0,0,0,2,22,0,6,4,2,3,1,22,1,1,1,6,1,26,3,0,1,1,0,9,1,0,0,3,0,0,0,0,0,0,0,0,0,0,0,0,0,0,0,0,0,0,0,0,0,0,0,0,0,0,0,0,0,0,0,0,0,0,0],"split_type":[0,0,0,0,0,0,0,0,0,0,0,0,0,0,0,0,0,0,0,0,0,0,0,0,0,0,0,0,0,0,0,0,0,0,0,0,0,0,0,0,0,0,0,0,0,0,0,0,0,0,0,0,0,0,0,0,0,0,0,0,0,0,0,0,0,0,0,0,0,0,0,0,0,0,0,0,0,0,0,0,0],"sum_hessian":[1.8357567E2,1.15763214E2,6.781245E1,1.0480994E2,1.0953279E1,4.380433E1,2.4008118E1,7.292585E1,3.188409E1,9.69286E0,1.2604187E0,2.9679886E1,1.4124442E1,8.313855E0,1.56942625E1,2.5230333E1,4.7695515E1,2.874487E1,3.139221E0,8.048223E0,1.6446368E0,2.0144815E1,9.535071E0,8.964145E0,5.160297E0,2.7904954E0,5.52336E0,1.1929918E1,3.764344E0,1.1914216E1,1.3316116E1,2.0415873E1,2.7279644E1,4.4592886E0,2.4285582E1,8.261521E0,1.1883293E1,5.930528E0,3.6045432E0,2.7919033E0,6.1722417E0,2.2265294E0,2.9337676E0,1.1498693E0,1.640626E0,4.40119E0,1.12217E0,2.1793857E0,9.750532E0,1.5521874E0,2.2121565E0,8.322685E0,3.5915308E0,6.153334E0,7.1627817E0,2.235634E0,1.8180239E1,6.3886123E0,2.0891031E1,2.8897426E0,1.5695462E0,2.0186268E1,4.0993137E0,1.86661E0,6.3949113E0,7.5470104E0,4.336283E0,1.7126672E0,1.8918759E0,1.5815357E0,1.2103677E0,2.6320739E0,3.5401678E0,1.0602268E0,1.1663026E0,1.5393479E0,1.3944198E0,2.8606687E0,1.5405211E0,1.1784656E0,1.00092E0],"tree_param":{"num_deleted":"0","num_feature":"33","num_nodes":"81","size_leaf_vector":"1"}},{"base_weights":[4.3828585E-4,-2.4659137E-1,1.6527909E-1,9.470613E-2,-5.183845E-1,4.750321E-2,3.720331E-1,7.9595816E-1,-1.4297882E-1,-5.8886665E-1,2.2268946E-1,-1.1694888E-2,3.0610132E-1,1.5224127E-1,3.1408826E-1,-3.5808504E-1,4.883476E-1,1.5390158E-2,-7.1721745E-1,-6.0520586E-2,2.7839997E-1,2.3385726E-1,-1.5277718E-1,-5.824599E-1,3.700151E-1,2.6600286E-1,-1.16492935E-1,-3.6757642E-1,4.5326653E-1,-8.6266273E-1,-6.338206E-2,-1.2604459E-1,6.107748E-1,6.1748065E-3,-2.5566977E-1,1.9729125E-1,-8.172591E-2,5.7964932E-2,-2.2172742E-1,2.4947111E-1,-9.8818965E-2,-2.7385244E-1,-4.579842E-3,1.04501426E-1,-2.5404206E-1,-5.6245126E-2,2.2646682E-1,2.5458053E-1,-1.0772385E-1],"categories":[],"categories_nodes":[],"categories_segments":[],"categories_sizes":[],"default_left":[0,0,0,0,0,0,0,0,0,0,0,0,0,0,0,0,0,0,0,0,0,0,0,0,0,0,0,0,0,0,0,0,0,0,0,0,0,0,0,0,0,0,0,0,0,0,0,0,0],"id":7,"left_children":[1,3,5,7,9,11,-1,13,15,17,-1,19,-1,21,-1,23,25,27,29,31,-1,-1,-1,33,35,-1,-1,37,39,41,43,45,47,-1,-1,-1,-1,-1,-1,-1,-1,-1,-1,-1,-1,-1,-1,-1,-1],"loss_changes":[7.071334E0,6.4962416E0,1.3125659E1,5.390269E0,3.888709E0,5.477603E0,0E0,1.1600223E0,3.5007823E0,2.907464E0,0E0,4.2061877E0,0E0,1.8331158E0,0E0,3.2939923E0,2.6654134E0,1.4279698E0,2.8765993E0,3.900357E0,0E0,0E0,0E0,2.4241781E0,1.1123924E0,0E0,0E0,1.0938323E0,1.4455695E0,1.054863E0,2.452312E0,4.472607E0,2.1271243E0,0E0,0E0,0E0,0E0,0E0,0E0,0E0,0E0,0E0,0E0,0E0,0E0,0E0,0E0,0E0,0E0],"parents":[2147483647,0,0,1,1,2,2,3,3,4,4,5,5,7,7,8,8,9,9,11,11,13,13,15,15,16,16,17,17,18,18,19,19,23,23,24,24,27,27,28,28,29,29,30,30,31,31,32,32],"right_children":[2,4,6,8,10,12,-1,14,16,18,-1,20,-1,22,-1,24,26,28,30,32,-1,-1,-1,34,36,-1,-1,38,40,42,44,46,48,-1,-1,-1,-1,-1,-1,-1,-1,-1,-1,-1,-1,-1,-1,-1,-1],"split_conditions":[1E0,1E0,1E0,1E0,1E0,1E0,3.720331E-1,3E0,1E0,1E0,2.2268946E-1,1E0,3.0610132E-1,3E1,3.1408826E-1,1E0,6.508E3,1E0,1E0,8.072E3,2.7839997E-1,2.3385726E-1,-1.5277718E-1,2.288E3,2E0,2.6600286E-1,-1.16492935E-1,3.8E1,1E0,6.314E3,2E0,4.3E1,5E0,6.1748065E-3,-2.5566977E-1,1.9729125E-1,-8.172591E-2,5.7964932E-2,-2.2172742E-1,2.4947111E-1,-9.8818965E-2,-2.7385244E-1,-4.579842E-3,1.04501426E-1,-2.5404206E-1,-5.6245126E-2,2.2646682E-1,2.5458053E-1,-1.0772385E-1],"split_indices":[13,15,15,8,14,14,0,5,23,25,0,12,0,3,0,30,1,29,30,1,0,0,0,1,9,0,0,3,11,1,11,0,10,0,0,0,0,0,0,0,0,0,0,0,0,0,0,0,0],"split_type":[0,0,0,0,0,0,0,0,0,0,0,0,0,0,0,0,0,0,0,0,0,0,0,0,0,0,0,0,0,0,0,0,0,0,0,0,0,0,0,0,0,0,0,0,0,0,0,0,0],"sum_hessian":[1.716542E2,6.850179E1,1.03152405E2,3.065681E1,3.7844982E1,9.390667E1,9.245737E0,7.1659646E0,2.3490845E1,3.634586E1,1.4991229E0,8.945142E1,4.4552436E0,2.4610167E0,4.704948E0,1.7843868E1,5.646977E0,6.5218825E0,2.9823978E1,8.592256E1,3.5288641E0,1.1715977E0,1.2894189E0,1.3793289E1,4.050579E0,3.874902E0,1.7720752E0,3.5647237E0,2.9571588E0,2.4135633E1,5.6883445E0,7.902163E1,6.90093E0,4.5487776E0,9.244513E0,2.7815819E0,1.2689971E0,1.6117494E0,1.9529742E0,1.9514353E0,1.0057235E0,2.2713425E1,1.422209E0,4.0927896E0,1.5955548E0,7.4605576E1,4.4160557E0,5.6423407E0,1.258589E0],"tree_param":{"num_deleted":"0","num_feature":"33","num_nodes":"49","size_leaf_vector":"1"}},{"base_weights":[1.2288032E-2,-1.2576967E-1,2.3488732E-1,1.1406723E-1,-3.0513802E-1,3.4421473E-3,3.3603996E-1,1.7507702E-1,-2.3306994E-1,-4.0732855E-1,2.2687975E-1,1.5366189E-1,-4.0747863E-1,-2.9696276E-2,3.6309624E-1,8.5196115E-2,-5.334402E-1,5.555846E-1,-2.4278934E-1,-4.8416087E-1,2.859553E-1,-6.392429E-1,4.4399592E-1,-2.1484259E-1,6.603259E-1,9.244486E-1,1.6454184E-1,5.7816416E-1,-3.7867743E-1,8.6790964E-2,-6.4283425E-1,3.2454014E-1,1.1399942E-1,-1.9457492E-1,1.0567758E-1,6.133716E-2,-7.3932546E-1,4.329527E-1,-3.84466E-1,6.9647096E-2,-7.8253853E-1,2.2720003E-1,-2.187335E-3,-1.15147196E-1,7.310595E-2,2.8414428E-1,-4.580474E-2,5.5356514E-2,3.2129616E-1,1.06937245E-1,-1.3473928E-1,2.7956924E-1,-9.0650104E-2,-3.063931E-1,1.1749856E-1,-9.151427E-2,2.4245566E-1,-2.1162535E-1,7.680975E-2,-6.39169E-2,1.811971E-1,-2.6556078E-1,-2.5579365E-2,3.313529E-2,1.9408967E-1,-2.0844316E-1,8.020122E-2,-3.301538E-1,-5.0693806E-2],"categories":[],"categories_nodes":[],"categories_segments":[],"categories_sizes":[],"default_left":[0,0,0,0,0,0,0,0,0,0,0,0,0,0,0,0,0,0,0,0,0,0,0,0,0,0,0,0,0,0,0,0,0,0,0,0,0,0,0,0,0,0,0,0,0,0,0,0,0,0,0,0,0,0,0,0,0,0,0,0,0,0,0,0,0,0,0,0,0],"id":8,"left_children":[1,3,5,7,9,11,-1,13,-1,15,17,19,21,23,25,27,29,31,33,35,37,39,41,43,45,47,49,51,53,55,57,-1,59,-1,-1,-1,61,63,65,-1,67,-1,-1,-1,-1,-1,-1,-1,-1,-1,-1,-1,-1,-1,-1,-1,-1,-1,-1,-1,-1,-1,-1,-1,-1,-1,-1,-1,-1],"loss_changes":[5.041166E0,4.3927975E0,1.2857647E1,2.5317445E0,3.258224E0,3.1963522E0,0E0,1.6303365E0,0E0,3.101736E0,1.6825655E0,3.3366334E0,3.0198138E0,2.8323534E0,2.3005629E0,2.709888E0,2.723114E0,1.3177356E0,1.3931458E0,1.3604579E0,3.32203E0,1.5936537E0,5.0842196E-1,1.438554E0,1.2407806E0,4.0232706E-1,2.2178345E0,2.0493073E0,3.4773798E0,2.161684E0,2.067213E0,0E0,8.481849E-1,0E0,0E0,0E0,4.243152E-1,1.7735801E0,1.4576774E0,0E0,1.7532334E0,0E0,0E0,0E0,0E0,0E0,0E0,0E0,0E0,0E0,0E0,0E0,0E0,0E0,0E0,0E0,0E0,0E0,0E0,0E0,0E0,0E0,0E0,0E0,0E0,0E0,0E0,0E0,0E0],"parents":[2147483647,0,0,1,1,2,2,3,3,4,4,5,5,7,7,9,9,10,10,11,11,12,12,13,13,14,14,15,15,16,16,17,17,18,18,19,19,20,20,21,21,22,22,23,23,24,24,25,25,26,26,27,27,28,28,29,29,30,30,32,32,36,36,37,37,38,38,40,40],"right_children":[2,4,6,8,10,12,-1,14,-1,16,18,20,22,24,26,28,30,32,34,36,38,40,42,44,46,48,50,52,54,56,58,-1,60,-1,-1,-1,62,64,66,-1,68,-1,-1,-1,-1,-1,-1,-1,-1,-1,-1,-1,-1,-1,-1,-1,-1,-1,-1,-1,-1,-1,-1,-1,-1,-1,-1,-1,-1],"split_conditions":[1E0,3E0,1E0,6.3E1,1E0,3.5E1,3.3603996E-1,2E0,-2.3306994E-1,1E0,4.5E1,2E0,1E0,4.4E1,7.6183945E1,4E0,2.6E1,8.54656E1,1.2363333E2,1E0,2E0,1E0,1.2E1,1E0,2.9E1,1E0,1E0,2.3706667E2,3.6E1,1E0,3E0,3.2454014E-1,9.271E3,-1.9457492E-1,1.0567758E-1,6.133716E-2,3.612E3,3E0,2.8E1,6.9647096E-2,1.9E1,2.2720003E-1,-2.187335E-3,-1.15147196E-1,7.310595E-2,2.8414428E-1,-4.580474E-2,5.5356514E-2,3.2129616E-1,1.06937245E-1,-1.3473928E-1,2.7956924E-1,-9.0650104E-2,-3.063931E-1,1.1749856E-1,-9.151427E-2,2.4245566E-1,-2.1162535E-1,7.680975E-2,-6.39169E-2,1.811971E-1,-2.6556078E-1,-2.5579365E-2,3.313529E-2,1.9408967E-1,-2.0844316E-1,8.020122E-2,-3.301538E-1,-5.0693806E-2],"split_indices":[16,10,17,3,27,3,0,10,0,25,3,5,27,3,2,4,3,2,2,11,9,10,0,18,0,29,15,2,3,21,6,0,1,0,0,0,1,4,3,0,0,0,0,0,0,0,0,0,0,0,0,0,0,0,0,0,0,0,0,0,0,0,0,0,0,0,0,0,0],"split_type":[0,0,0,0,0,0,0,0,0,0,0,0,0,0,0,0,0,0,0,0,0,0,0,0,0,0,0,0,0,0,0,0,0,0,0,0,0,0,0,0,0,0,0,0,0,0,0,0,0,0,0,0,0,0,0,0,0,0,0,0,0,0,0,0,0,0,0,0,0],"sum_hessian":[1.6207751E2,1.0030353E2,6.1773987E1,4.307336E1,5.7230167E1,4.9766544E1,1.2007442E1,4.10649E1,2.0084598E0,4.8205227E1,9.0249405E0,3.6902283E1,1.2864262E1,2.0059732E1,2.1005167E1,9.892979E0,3.831225E1,5.2015977E0,3.8233428E0,5.88231E0,3.1019974E1,1.0307813E1,2.5564487E0,1.6358952E1,3.70078E0,4.533153E0,1.6472013E1,4.6766367E0,5.216342E0,5.7752066E0,3.253704E1,1.7118529E0,3.4897447E0,2.2196689E0,1.6036738E0,1.6440911E0,4.2382183E0,2.5732124E1,5.2878485E0,1.3680983E0,8.939714E0,1.1085778E0,1.4478709E0,1.2072724E1,4.286228E0,2.6136997E0,1.0870802E0,1.1228206E0,3.4103324E0,1.2867168E1,3.6048453E0,3.2943358E0,1.3823009E0,2.666282E0,2.55006E0,4.116433E0,1.6587733E0,3.0620317E1,1.9167243E0,2.43178E0,1.0579647E0,3.1763856E0,1.0618329E0,1.086917E1,1.4862954E1,3.5375338E0,1.7503148E0,5.365445E0,3.574269E0],"tree_param":{"num_deleted":"0","num_feature":"33","num_nodes":"69","size_leaf_vector":"1"}},{"base_weights":[1.5238673E-2,-6.261118E-1,5.468476E-2,-2.796463E-1,-5.7093374E-2,1.6521223E-1,-1.5894991E-1,1.3519534E-1,-1.6038509E-1,1.9917582E-1,-6.951353E-1,-2.4083497E-1,4.3257502E-1,-2.4093868E-2,3.2928643E-1,2.953207E-2,-3.0900604E-1,2.3236077E-1,-3.9032546E-1,2.0704432E-1,-4.757524E-2,2.7476963E-1,-3.2211787E-1,2.1684234E-1,3.315487E-1,-3.978945E-1,6.1405253E-1,1.8413621E-1,-4.598289E-1,-5.501522E-2,1.7205885E-1,-1.2957318E-1,1.5999678E-1,1.7912233E-3,1.4456029E-1,-2.8549495E-1,6.0247816E-2,2.6087835E-1,-9.036838E-2,-1.07276805E-1,2.4629115E-1,-2.164627E-1,-6.865998E-2],"categories":[],"categories_nodes":[],"categories_segments":[],"categories_sizes":[],"default_left":[0,0,0,0,0,0,0,0,0,0,0,0,0,0,0,0,0,0,0,0,0,0,0,0,0,0,0,0,0,0,0,0,0,0,0,0,0,0,0,0,0,0,0],"id":9,"left_children":[1,3,5,-1,7,9,11,-1,-1,13,15,17,19,21,23,-1,-1,25,27,-1,-1,29,31,33,-1,35,37,39,41,-1,-1,-1,-1,-1,-1,-1,-1,-1,-1,-1,-1,-1,-1],"loss_changes":[3.9128458E0,1.5076995E0,3.458307E0,0E0,1.259279E0,2.9518154E0,2.5293381E0,0E0,0E0,2.7212176E0,1.1323154E0,3.247211E0,1.0909281E0,3.234505E0,4.9146633E0,0E0,0E0,2.9721978E0,1.4534883E0,0E0,0E0,2.5929837E0,1.9346145E0,2.950482E0,0E0,1.8103476E0,2.0057576E0,1.8164337E0,1.7007504E0,0E0,0E0,0E0,0E0,0E0,0E0,0E0,0E0,0E0,0E0,0E0,0E0,0E0,0E0],"parents":[2147483647,0,0,1,1,2,2,4,4,5,5,6,6,9,9,10,10,11,11,12,12,13,13,14,14,17,17,18,18,21,21,22,22,23,23,25,25,26,26,27,27,28,28],"right_children":[2,4,6,-1,8,10,12,-1,-1,14,16,18,20,22,24,-1,-1,26,28,-1,-1,30,32,34,-1,36,38,40,42,-1,-1,-1,-1,-1,-1,-1,-1,-1,-1,-1,-1,-1,-1],"split_conditions":[8E0,4E0,4E0,-2.796463E-1,3E0,1E0,7.888E3,1.3519534E-1,-1.6038509E-1,1E0,1E0,8.0809525E1,3.7E1,1.27E2,1E0,2.953207E-2,-3.0900604E-1,1.131E3,1.311E3,2.0704432E-1,-4.757524E-2,8.4066666E1,1E0,1E0,3.315487E-1,5.837642E1,3E0,5E0,2.993E3,-5.501522E-2,1.7205885E-1,-1.2957318E-1,1.5999678E-1,1.7912233E-3,1.4456029E-1,-2.8549495E-1,6.0247816E-2,2.6087835E-1,-9.036838E-2,-1.07276805E-1,2.4629115E-1,-2.164627E-1,-6.865998E-2],"split_indices":[0,5,5,0,10,32,1,0,0,13,13,2,0,2,15,0,0,1,1,0,0,2,12,31,0,2,8,10,1,0,0,0,0,0,0,0,0,0,0,0,0,0,0],"split_type":[0,0,0,0,0,0,0,0,0,0,0,0,0,0,0,0,0,0,0,0,0,0,0,0,0,0,0,0,0,0,0,0,0,0,0,0,0,0,0,0,0,0,0],"sum_hessian":[1.523121E2,7.9633923E0,1.4434871E2,4.7633038E0,3.2000885E0,9.528043E1,4.9068268E1,1.5782408E0,1.6218479E0,9.2401245E1,2.8791924E0,4.362245E1,5.4458165E0,3.4321095E1,5.8080147E1,1.063965E0,1.8152273E0,1.0339512E1,3.328294E1,3.676492E0,1.7693244E0,1.7175371E1,1.7145725E1,5.1845848E1,6.234298E0,3.8839025E0,6.455609E0,3.4142325E0,2.9868708E1,6.9316864E0,1.0243685E1,1.5634229E1,1.5114957E0,2.9442213E1,2.2403637E1,1.7114831E0,2.1724193E0,5.0856376E0,1.3699714E0,2.0818164E0,1.332416E0,1.3006456E1,1.6862251E1],"tree_param":{"num_deleted":"0","num_feature":"33","num_nodes":"43","size_leaf_vector":"1"}},{"base_weights":[1.1681594E-2,1.6052379E-1,-1.2810612E-1,2.3267622E-1,-3.25651E-1,-2.5438622E-1,8.700257E-2,1.6630015E-1,8.197103E-1,-1.0078157E-1,-2.9189122E-1,-3.4864914E-1,7.459242E-2,-7.870369E-2,2.879234E-1,2.2981581E-1,-6.010387E-1,2.811275E-1,5.424169E-2,1.1258971E-1,-2.7591005E-1,-1.7254461E-1,-5.824657E-1,-2.9702136E-1,6.691111E-1,-3.825904E-1,1.01724006E-1,5.0667113E-1,6.860664E-2,-2.466862E-1,-4.1350357E-2,-2.770482E-1,8.548552E-2,-4.8518962E-1,4.278032E-2,-6.8447244E-1,1.3669726E-1,2.826739E-1,-5.735668E-1,2.4467756E-1,2.6480883E-2,-6.757237E-1,1.4885455E-1,-3.480042E-1,3.7142938E-1,2.7062315E-1,4.7779005E-2,-1.2449176E-1,6.8054594E-2,1.7147097E-1,-8.06933E-2,-2.1123758E-1,1.8173603E-2,2.0803013E-1,-8.622308E-2,-2.5085756E-1,2.914127E-2,2.3417084E-1,-9.155173E-2,-2.5308222E-1,4.451202E-2,-2.6359603E-1,-5.423067E-3,1.8164262E-1,-6.908909E-2,-1.9711792E-1,1.0181246E-1,2.2267121E-1,-4.342932E-2],"categories":[],"categories_nodes":[],"categories_segments":[],"categories_sizes":[],"default_left":[0,0,0,0,0,0,0,0,0,0,0,0,0,0,0,0,0,0,0,0,0,0,0,0,0,0,0,0,0,0,0,0,0,0,0,0,0,0,0,0,0,0,0,0,0,0,0,0,0,0,0,0,0,0,0,0,0,0,0,0,0,0,0,0,0,0,0,0,0],"id":10,"left_children":[1,3,5,7,9,11,13,15,17,19,-1,21,23,25,-1,27,29,-1,-1,-1,31,33,35,37,39,41,43,45,47,-1,-1,-1,49,51,53,55,-1,57,59,-1,-1,61,63,65,67,-1,-1,-1,-1,-1,-1,-1,-1,-1,-1,-1,-1,-1,-1,-1,-1,-1,-1,-1,-1,-1,-1,-1,-1],"loss_changes":[3.0988796E0,2.6049E0,2.1097448E0,2.3326883E0,1.3188515E0,1.5355792E0,4.2944875E0,2.9738212E0,2.9421568E-1,7.988931E-1,0E0,1.4647665E0,2.776009E0,1.4338913E0,0E0,2.3957844E0,3.708346E-1,0E0,0E0,0E0,1.6407478E0,1.576114E0,1.9966931E0,1.4239532E0,3.3592963E-1,1.6098614E0,2.1613867E0,2.5877523E0,2.8163366E0,0E0,0E0,0E0,1.0494192E0,1.1782222E0,3.3360126E0,1.8465219E0,0E0,1.1783221E0,1.2284092E0,0E0,0E0,8.415251E-1,8.7759E-1,1.6669348E0,2.20466E0,0E0,0E0,0E0,0E0,0E0,0E0,0E0,0E0,0E0,0E0,0E0,0E0,0E0,0E0,0E0,0E0,0E0,0E0,0E0,0E0,0E0,0E0,0E0,0E0],"parents":[2147483647,0,0,1,1,2,2,3,3,4,4,5,5,6,6,7,7,8,8,9,9,11,11,12,12,13,13,15,15,16,16,20,20,21,21,22,22,23,23,24,24,25,25,26,26,27,27,28,28,32,32,33,33,34,34,35,35,37,37,38,38,41,41,42,42,43,43,44,44],"right_children":[2,4,6,8,10,12,14,16,18,20,-1,22,24,26,-1,28,30,-1,-1,-1,32,34,36,38,40,42,44,46,48,-1,-1,-1,50,52,54,56,-1,58,60,-1,-1,62,64,66,68,-1,-1,-1,-1,-1,-1,-1,-1,-1,-1,-1,-1,-1,-1,-1,-1,-1,-1,-1,-1,-1,-1,-1,-1],"split_conditions":[2E0,2E0,1E0,4.3E1,1E0,1E0,1E0,5.4E1,1.0722E4,8.3E1,-2.9189122E-1,3E0,1E0,1E0,2.879234E-1,1E0,1E0,2.811275E-1,5.424169E-2,1.1258971E-1,2.551E3,2.1E3,1E0,1.82E3,1E0,5E0,1E0,3E0,2E0,-2.466862E-1,-4.1350357E-2,-2.770482E-1,3E0,1E0,2.583E3,5.1E1,1.3669726E-1,4E1,9.407E3,2.4467756E-1,2.6480883E-2,4.006E3,1E0,4E0,4E0,2.7062315E-1,4.7779005E-2,-1.2449176E-1,6.8054594E-2,1.7147097E-1,-8.06933E-2,-2.1123758E-1,1.8173603E-2,2.0803013E-1,-8.622308E-2,-2.5085756E-1,2.914127E-2,2.3417084E-1,-9.155173E-2,-2.5308222E-1,4.451202E-2,-2.6359603E-1,-5.423067E-3,1.8164262E-1,-6.908909E-2,-1.9711792E-1,1.0181246E-1,2.2267121E-1,-4.342932E-2],"split_indices":[8,7,16,0,20,23,17,3,1,2,0,5,26,13,0,11,23,0,0,0,1,1,20,1,15,10,29,5,5,0,0,0,5,18,1,3,0,3,1,0,0,1,25,4,10,0,0,0,0,0,0,0,0,0,0,0,0,0,0,0,0,0,0,0,0,0,0,0,0],"split_type":[0,0,0,0,0,0,0,0,0,0,0,0,0,0,0,0,0,0,0,0,0,0,0,0,0,0,0,0,0,0,0,0,0,0,0,0,0,0,0,0,0,0,0,0,0,0,0,0,0,0,0,0,0,0,0,0,0,0,0,0,0,0,0,0,0,0,0,0,0],"sum_hessian":[1.4695105E2,7.109872E1,7.585233E1,6.2364685E1,8.734032E0,4.767942E1,2.8172915E1,5.718235E1,5.182333E0,7.3399353E0,1.3940959E0,3.7013947E1,1.0665475E1,2.4441973E1,3.7309413E0,5.345793E1,3.724421E0,3.983717E0,1.1986158E0,1.6665326E0,5.673403E0,2.2103851E1,1.4910094E1,6.8710265E0,3.7944489E0,8.688252E0,1.575372E1,1.8884085E1,3.4573845E1,1.9958779E0,1.728543E0,1.4749995E0,4.1984034E0,8.503601E0,1.360025E1,1.3886282E1,1.0238128E0,2.2120214E0,4.6590047E0,2.7074974E0,1.0869516E0,5.424651E0,3.2636015E0,5.797011E0,9.956709E0,8.085214E0,1.0798871E1,8.124233E0,2.6449614E1,1.512196E0,2.6862073E0,5.8619275E0,2.641673E0,4.20804E0,9.39221E0,1.1570486E1,2.3157952E0,1.0201371E0,1.1918844E0,3.2680635E0,1.3909415E0,3.88867E0,1.5359809E0,1.20975E0,2.0538516E0,4.0294294E0,1.7675812E0,5.5395017E0,4.4172072E0],"tree_param":{"num_deleted":"0","num_feature":"33","num_nodes":"69","size_leaf_vector":"1"}},{"base_weights":[1.0173284E-2,-2.7811373E-2,5.051045E-1,-6.077869E-1,6.1386363E-3,6.7424273E-1,-6.108788E-2,-8.121317E-1,9.5996715E-2,9.2660755E-2,-1.8309008E-1,2.4362274E-1,2.7528378E-1,-7.259349E-2,-2.7691507E-1,-5.4066148E-2,2.9320502E-1,2.9694533E-1,-3.221145E-1,-3.7216693E-2,1.3602912E-1,-1.2361184E-1,6.4676505E-1,1.775554E-1,7.5073874E-1,6.1476785E-1,-2.402953E-1,-4.4840157E-1,1.03356935E-1,-5.0048973E-2,2.1377091E-1,-4.6834834E-2,2.850413E-1,2.7768936E-2,2.5435764E-1,6.2430363E-2,2.470645E-1,2.522222E-1,-8.1588805E-2,-1.573385E-1,8.805681E-2,4.9886186E-2,-1.6996497E-1,1.18074395E-1,-1.2104005E-1],"categories":[],"categories_nodes":[],"categories_segments":[],"categories_sizes":[],"default_left":[0,0,0,0,0,0,0,0,0,0,0,0,0,0,0,0,0,0,0,0,0,0,0,0,0,0,0,0,0,0,0,0,0,0,0,0,0,0,0,0,0,0,0,0,0],"id":11,"left_children":[1,3,5,7,9,11,-1,13,-1,15,17,19,-1,-1,-1,21,23,25,27,-1,-1,29,31,33,35,37,39,41,43,-1,-1,-1,-1,-1,-1,-1,-1,-1,-1,-1,-1,-1,-1,-1,-1],"loss_changes":[2.6514711E0,2.5878377E0,1.3422191E0,1.6376846E0,2.0630476E0,6.5120935E-1,0E0,1.7115879E-1,0E0,2.5588655E0,2.7349553E0,3.937806E-1,0E0,0E0,0E0,2.553605E0,1.8070734E0,1.7530522E0,1.719883E0,0E0,0E0,1.8177394E0,1.303379E0,1.6637613E0,1.08704805E-1,1.4686246E0,7.9311E-1,1.8520708E0,1.3269285E0,0E0,0E0,0E0,0E0,0E0,0E0,0E0,0E0,0E0,0E0,0E0,0E0,0E0,0E0,0E0,0E0],"parents":[2147483647,0,0,1,1,2,2,3,3,4,4,5,5,7,7,9,9,10,10,11,11,15,15,16,16,17,17,18,18,21,21,22,22,23,23,24,24,25,25,26,26,27,27,28,28],"right_children":[2,4,6,8,10,12,-1,14,-1,16,18,20,-1,-1,-1,22,24,26,28,-1,-1,30,32,34,36,38,40,42,44,-1,-1,-1,-1,-1,-1,-1,-1,-1,-1,-1,-1,-1,-1,-1,-1],"split_conditions":[1E0,8E0,3.5E1,3.382E3,2E0,1E0,-6.108788E-2,2E0,9.5996715E-2,1E0,1.252E3,3.7E1,2.7528378E-1,-7.259349E-2,-2.7691507E-1,1E0,1E0,4E0,6.435E3,-3.7216693E-2,1.3602912E-1,1.0984E4,1E0,1E0,5.7541668E1,3.9E1,1E0,2.6E1,3E0,-5.0048973E-2,2.1377091E-1,-4.6834834E-2,2.850413E-1,2.7768936E-2,2.5435764E-1,6.2430363E-2,2.470645E-1,2.522222E-1,-8.1588805E-2,-1.573385E-1,8.805681E-2,4.9886186E-2,-1.6996497E-1,1.18074395E-1,-1.2104005E-1],"split_indices":[12,0,0,1,9,25,0,10,0,22,1,3,0,0,0,24,28,5,1,0,0,1,29,21,2,3,28,3,8,0,0,0,0,0,0,0,0,0,0,0,0,0,0,0,0],"split_type":[0,0,0,0,0,0,0,0,0,0,0,0,0,0,0,0,0,0,0,0,0,0,0,0,0,0,0,0,0,0,0,0,0,0,0,0,0,0,0,0,0,0,0,0,0],"sum_hessian":[1.3929002E2,1.3023839E2,9.051643E0,6.267466E0,1.2397092E2,7.346957E0,1.7046866E0,5.2383533E0,1.0291127E0,8.542287E1,3.8548058E1,3.375452E0,3.971505E0,1.3712602E0,3.867093E0,4.975231E1,3.567055E1,8.401774E0,3.0146282E1,1.3748344E0,2.0006175E0,4.6010197E1,3.7421157E0,2.9581406E1,6.089145E0,5.18821E0,3.2135644E0,2.3204813E1,6.94147E0,4.4510174E1,1.5000236E0,1.1593287E0,2.582787E0,2.7262678E1,2.3187273E0,1.1768011E0,4.912344E0,4.175897E0,1.0123131E0,2.108616E0,1.1049483E0,3.6754014E0,1.9529411E1,4.5559916E0,2.3854785E0],"tree_param":{"num_deleted":"0","num_feature":"33","num_nodes":"45","size_leaf_vector":"1"}},{"base_weights":[1.606325E-2,3.9387457E-2,-6.875919E-1,1.1579338E-1,-1.4871767E-1,-2.859594E-1,-4.083579E-2,-3.2394084E-1,1.8128797E-1,2.4314363E-1,-3.5960943E-1,-4.8121905E-1,1.694688E-1,-3.6311476E-3,3.1751806E-1,3.7496373E-1,-1.5443833E-1,-4.3794563E-1,1.9463749E-1,-1.5408692E-1,-8.5251814E-1,-5.622565E-1,6.2665865E-2,4.9228618E-1,1.0112077E-2,7.971727E-1,1.468337E-1,-7.6666254E-1,-2.0299093E-1,9.494272E-2,-1.9296718E-1,-3.2464558E-1,-4.4051684E-2,-4.620875E-2,-2.421572E-1,1.2588157E-1,-2.0785024E-2,7.366767E-2,2.2964023E-1,6.901739E-2,-1.0993564E-1,3.0086142E-1,7.012168E-2,1.24927334E-1,-1.2633942E-1,-4.8447303E-3,-2.6911628E-1,-1.1892107E-1,1.3301931E-1],"categories":[],"categories_nodes":[],"categories_segments":[],"categories_sizes":[],"default_left":[0,0,0,0,0,0,0,0,0,0,0,0,0,0,0,0,0,0,0,0,0,0,0,0,0,0,0,0,0,0,0,0,0,0,0,0,0,0,0,0,0,0,0,0,0,0,0,0,0],"id":12,"left_children":[1,3,5,7,9,-1,-1,11,13,15,17,19,-1,21,23,25,-1,27,-1,29,31,33,35,37,39,41,43,45,47,-1,-1,-1,-1,-1,-1,-1,-1,-1,-1,-1,-1,-1,-1,-1,-1,-1,-1,-1,-1],"loss_changes":[2.241334E0,1.9076468E0,5.122125E-1,2.7688391E0,3.2634525E0,0E0,0E0,2.0272956E0,2.08054E0,1.5961015E0,2.2896926E0,1.2301807E0,0E0,1.3686154E0,2.5490942E0,1.0908991E0,0E0,1.7099919E0,0E0,1.8561294E0,6.5614605E-1,2.67604E-1,1.5872251E0,1.8534627E0,1.5960233E0,2.4928832E-1,1.6097343E0,9.356046E-1,2.1069345E0,0E0,0E0,0E0,0E0,0E0,0E0,0E0,0E0,0E0,0E0,0E0,0E0,0E0,0E0,0E0,0E0,0E0,0E0,0E0,0E0],"parents":[2147483647,0,0,1,1,2,2,3,3,4,4,7,7,8,8,9,9,10,10,11,11,13,13,14,14,15,15,17,17,19,19,20,20,21,21,22,22,23,23,24,24,25,25,26,26,27,27,28,28],"right_children":[2,4,6,8,10,-1,-1,12,14,16,18,20,-1,22,24,26,-1,28,-1,30,32,34,36,38,40,42,44,46,48,-1,-1,-1,-1,-1,-1,-1,-1,-1,-1,-1,-1,-1,-1,-1,-1,-1,-1,-1,-1],"split_conditions":[1E0,2E0,3.1E1,2E0,2.7E1,-2.859594E-1,-4.083579E-2,1E0,1E0,4E0,3.9993332E2,2.4E1,1.694688E-1,1.05E3,4E0,1E0,-1.5443833E-1,1E0,1.9463749E-1,1E0,3.3E1,4E0,1.957E3,1E0,1.5483333E2,1E0,1E0,6.954386E1,1E0,9.494272E-2,-1.9296718E-1,-3.2464558E-1,-4.4051684E-2,-4.620875E-2,-2.421572E-1,1.2588157E-1,-2.0785024E-2,7.366767E-2,2.2964023E-1,6.901739E-2,-1.0993564E-1,3.0086142E-1,7.012168E-2,1.24927334E-1,-1.2633942E-1,-4.8447303E-3,-2.6911628E-1,-1.1892107E-1,1.3301931E-1],"split_indices":[32,11,3,5,3,0,0,14,13,8,2,0,0,1,5,9,0,29,0,11,3,5,1,31,2,21,16,2,27,0,0,0,0,0,0,0,0,0,0,0,0,0,0,0,0,0,0,0,0],"split_type":[0,0,0,0,0,0,0,0,0,0,0,0,0,0,0,0,0,0,0,0,0,0,0,0,0,0,0,0,0,0,0,0,0,0,0,0,0,0,0,0,0,0,0,0,0,0,0,0,0],"sum_hessian":[1.3391496E2,1.3053221E2,3.3827548E0,9.3100426E1,3.743179E1,1.7914695E0,1.5912853E0,1.1557395E1,8.154303E1,1.30431595E1,2.438863E1,1.0209447E1,1.347948E0,3.5003082E1,4.6539948E1,1.1541205E1,1.5019544E0,2.3155529E1,1.2331012E0,6.1797695E0,4.0296774E0,2.919787E0,3.2083298E1,2.9287716E1,1.7252232E1,3.1735027E0,8.3677025E0,8.708604E0,1.4446926E1,3.3295991E0,2.8501701E0,2.637819E0,1.391858E0,1.7057323E0,1.2140546E0,8.070778E0,2.4012518E1,1.6386719E1,1.2900997E1,1.1136575E1,6.115656E0,1.7534314E0,1.4200711E0,5.855256E0,2.5124466E0,1.455401E0,7.2532024E0,1.141736E1,3.0295653E0],"tree_param":{"num_deleted":"0","num_feature":"33","num_nodes":"49","size_leaf_vector":"1"}},{"base_weights":[7.916947E-3,-2.2962868E-2,4.316834E-1,-1.860716E-1,5.967558E-2,2.3815498E-1,1.12405926E-1,-2.4024914E-1,4.0116057E-1,5.040725E-3,2.6881063E-1,-3.158777E-1,1.6073069E-1,-1.1777506E-1,-6.0827845E-1,-7.772647E-2,2.4535117E-1,-4.6367377E-2,2.5789315E-1,6.849564E-2,-2.037116E-1,-2.8297174E-1,1.2858516E-1,2.38437E-2,-7.28478E-1,-2.3683715E-1,6.828707E-2,-1.1561437E-1,9.951072E-2,-2.2575961E-1,8.365968E-2,-2.6978302E-1,-6.891022E-2,-1.0429728E-1,1.5782431E-1,4.6472456E-2,-1.7882428E-1],"categories":[],"categories_nodes":[],"categories_segments":[],"categories_sizes":[],"default_left":[0,0,0,0,0,0,0,0,0,0,0,0,0,0,0,0,0,0,0,0,0,0,0,0,0,0,0,0,0,0,0,0,0,0,0,0,0],"id":13,"left_children":[1,3,5,7,9,-1,11,13,15,17,-1,19,-1,21,23,-1,-1,25,-1,-1,-1,27,29,-1,31,33,35,-1,-1,-1,-1,-1,-1,-1,-1,-1,-1],"loss_changes":[1.7202435E0,1.6659704E0,9.4310105E-1,1.4175931E0,3.7536147E0,0E0,1.2407986E0,1.6702912E0,1.2799548E0,3.4757853E0,0E0,8.599715E-1,0E0,1.2669501E0,8.357589E-1,0E0,0E0,1.6478938E0,0E0,0E0,0E0,1.2868519E0,1.9079874E0,0E0,4.841566E-1,2.5756009E0,2.8211813E0,0E0,0E0,0E0,0E0,0E0,0E0,0E0,0E0,0E0,0E0],"parents":[2147483647,0,0,1,1,2,2,3,3,4,4,6,6,7,7,8,8,9,9,11,11,13,13,14,14,17,17,21,21,22,22,24,24,25,25,26,26],"right_children":[2,4,6,8,10,-1,12,14,16,18,-1,20,-1,22,24,-1,-1,26,-1,-1,-1,28,30,-1,32,34,36,-1,-1,-1,-1,-1,-1,-1,-1,-1,-1],"split_conditions":[1E0,1E0,1E0,4.4747406E2,1E0,2.3815498E-1,1.1791549E2,2.2636763E2,7.503E3,1E0,2.6881063E-1,1.559E3,1.6073069E-1,2.2E1,2.9E1,-7.772647E-2,2.4535117E-1,1E0,2.5789315E-1,6.849564E-2,-2.037116E-1,5E0,2E0,2.38437E-2,1E0,2E0,2E0,-1.1561437E-1,9.951072E-2,-2.2575961E-1,8.365968E-2,-2.6978302E-1,-6.891022E-2,-1.0429728E-1,1.5782431E-1,4.6472456E-2,-1.7882428E-1],"split_indices":[12,29,11,2,28,0,2,2,1,30,0,1,0,0,3,0,0,13,0,0,0,8,5,0,21,7,7,0,0,0,0,0,0,0,0,0,0],"split_type":[0,0,0,0,0,0,0,0,0,0,0,0,0,0,0,0,0,0,0,0,0,0,0,0,0,0,0,0,0,0,0,0,0,0,0,0,0],"sum_hessian":[1.2970099E2,1.217732E2,7.927788E0,4.05283E1,8.12449E1,3.0179908E0,4.9097967E0,3.7645992E1,2.8823087E0,7.720739E1,4.0375133E0,2.5669234E0,2.3428733E0,2.9236563E1,8.40943E0,1.2615348E0,1.6207738E0,7.3718636E1,3.4887533E0,1.1759957E0,1.3909277E0,1.7412209E1,1.1824353E1,1.3014678E0,7.107962E0,2.7300312E1,4.6418324E1,1.5245261E1,2.1669471E0,1.1389567E0,1.0685397E1,4.6966896E0,2.4112725E0,2.4312952E1,2.9873605E0,4.174269E1,4.6756296E0],"tree_param":{"num_deleted":"0","num_feature":"33","num_nodes":"37","size_leaf_vector":"1"}},{"base_weights":[1.0146861E-2,-1.956201E-1,2.9479938E-2,1.6029356E-1,-7.850533E-2,2.1998452E-1,-3.4290832E-1,-1.55259E-1,3.6507317E-1,-2.5759518E-2,3.8596782E-1,1.6704158E-1,-6.4499617E-1,-2.5822124E-1,1.04146376E-1,6.3545084E-1,8.573095E-2,4.0457502E-1,-2.5913087E-1,5.321277E-1,-9.548626E-2,-2.764221E-1,6.8393916E-2,1.375214E-1,-3.4744233E-1,3.5740337E-1,-3.3438414E-1,5.316918E-2,2.5467476E-1,4.8236263E-1,-2.655176E-1,1.9446269E-1,-1.5677278E-1,-1.5792322E-1,1.158711E-1,-4.589372E-2,2.1020369E-1,1.480801E-1,-1.2271335E-1,2.182966E-1,-3.490502E-2,-4.0298957E-2,-2.2428726E-1,1.7608036E-1,1.4557486E-3,-2.1359E-2,-2.05864E-1,2.1067746E-1,1.8771358E-2,-1.6951886E-1,9.134928E-2],"categories":[],"categories_nodes":[],"categories_segments":[],"categories_sizes":[],"default_left":[0,0,0,0,0,0,0,0,0,0,0,0,0,0,0,0,0,0,0,0,0,0,0,0,0,0,0,0,0,0,0,0,0,0,0,0,0,0,0,0,0,0,0,0,0,0,0,0,0,0,0],"id":14,"left_children":[1,-1,3,5,7,9,11,13,15,17,19,-1,21,23,25,27,29,31,33,35,37,-1,-1,39,41,43,45,-1,-1,47,49,-1,-1,-1,-1,-1,-1,-1,-1,-1,-1,-1,-1,-1,-1,-1,-1,-1,-1,-1,-1],"loss_changes":[1.6388346E0,0E0,1.7624266E0,1.7678456E0,2.3898525E0,2.0893514E0,2.089317E0,1.6059887E0,7.3154795E-1,2.2629411E0,2.196372E0,0E0,1.4718182E0,1.5523105E0,2.0643497E0,3.5157132E-1,1.0022357E0,2.1337144E0,2.7118464E0,2.8256698E0,1.6700827E0,0E0,0E0,1.3664702E0,2.889203E0,9.34549E-1,5.926027E-1,0E0,0E0,2.6086456E-1,8.5037565E-1,0E0,0E0,0E0,0E0,0E0,0E0,0E0,0E0,0E0,0E0,0E0,0E0,0E0,0E0,0E0,0E0,0E0,0E0,0E0,0E0],"parents":[2147483647,0,0,2,2,3,3,4,4,5,5,6,6,7,7,8,8,9,9,10,10,12,12,13,13,14,14,15,15,16,16,17,17,18,18,19,19,20,20,23,23,24,24,25,25,26,26,29,29,30,30],"right_children":[2,-1,4,6,8,10,12,14,16,18,20,-1,22,24,26,28,30,32,34,36,38,-1,-1,40,42,44,46,-1,-1,48,50,-1,-1,-1,-1,-1,-1,-1,-1,-1,-1,-1,-1,-1,-1,-1,-1,-1,-1,-1,-1],"split_conditions":[6.53E2,-1.956201E-1,3E0,1E0,1E0,3E0,1E0,4.113E3,3E0,1.2822223E2,1E0,1.6704158E-1,3.7E1,1E0,2E0,1.2363333E2,1.82E3,3.6E1,1E0,2E0,1.282E3,-2.764221E-1,6.8393916E-2,1.3E1,3.4E1,2.4990475E2,2.848E2,5.316918E-2,2.5467476E-1,1E0,9.407E3,1.9446269E-1,-1.5677278E-1,-1.5792322E-1,1.158711E-1,-4.589372E-2,2.1020369E-1,1.480801E-1,-1.2271335E-1,2.182966E-1,-3.490502E-2,-4.0298957E-2,-2.2428726E-1,1.7608036E-1,1.4557486E-3,-2.1359E-2,-2.05864E-1,2.1067746E-1,1.8771358E-2,-1.6951886E-1,9.134928E-2],"split_indices":[1,0,10,20,27,4,25,1,8,2,15,0,0,25,9,2,1,3,21,5,1,0,0,0,3,2,2,0,0,13,1,0,0,0,0,0,0,0,0,0,0,0,0,0,0,0,0,0,0,0,0],"split_type":[0,0,0,0,0,0,0,0,0,0,0,0,0,0,0,0,0,0,0,0,0,0,0,0,0,0,0,0,0,0,0,0,0,0,0,0,0,0,0,0,0,0,0,0,0,0,0,0,0,0,0],"sum_hessian":[1.2550617E2,2.6317873E0,1.2287438E2,5.5344955E1,6.752943E1,4.9979145E1,5.3658104E0,5.8122334E1,9.40709E0,2.048911E1,2.9490036E1,1.1368173E0,4.228993E0,4.1610867E1,1.6511469E1,4.1324477E0,5.274642E0,6.9464016E0,1.3542708E1,2.2541603E1,6.9484324E0,3.1698449E0,1.0591481E0,7.555755E0,3.405511E1,1.0584044E1,5.9274235E0,1.8949778E0,2.2374701E0,2.301968E0,2.9726741E0,5.7391458E0,1.2072557E0,9.706907E0,3.8358016E0,4.468989E0,1.8072615E1,2.2142663E0,4.734166E0,1.7113715E0,5.8443837E0,2.3092907E1,1.0962205E1,6.007797E0,4.576248E0,4.0786963E0,1.8487269E0,1.0690849E0,1.2328832E0,1.954346E0,1.0183282E0],"tree_param":{"num_deleted":"0","num_feature":"33","num_nodes":"51","size_leaf_vector":"1"}},{"base_weights":[9.991452E-3,2.9807424E-2,-6.0614026E-1,5.755571E-2,-3.1281874E-1,-2.5253218E-1,-2.5124047E-2,-3.0662036E-2,2.040512E-1,-6.149053E-1,1.9699508E-1,-5.964814E-2,5.8685637E-1,7.894518E-2,2.7561048E-1,-2.3184502E-1,1.2487262E-2,2.2649129E-1,-1.4060655E-1,1.1591293E-2,-3.5097706E-1,2.140601E-1,5.7048317E-2,2.704587E-1,-6.318641E-2,-1.3073514E-2,2.2223903E-1,-1.7507374E-1,1.3836409E-2,1.238862E-2,2.5897855E-1,-1.00583896E-1,4.88699E-2],"categories":[],"categories_nodes":[],"categories_segments":[],"categories_sizes":[],"default_left":[0,0,0,0,0,0,0,0,0,0,0,0,0,0,0,0,0,0,0,0,0,0,0,0,0,0,0,0,0,0,0,0,0],"id":15,"left_children":[1,3,5,7,9,-1,-1,11,13,15,17,19,21,23,-1,-1,-1,-1,-1,25,27,-1,-1,29,31,-1,-1,-1,-1,-1,-1,-1,-1],"loss_changes":[1.5003195E0,1.1453242E0,4.0092647E-1,1.4347601E0,1.5131996E0,0E0,0E0,1.285454E0,3.653575E0,6.45751E-1,1.8843495E0,1.4077762E0,2.6348472E-2,1.0122815E0,0E0,0E0,0E0,0E0,0E0,2.2575617E0,1.2573501E0,0E0,0E0,2.105897E0,1.3954743E0,0E0,0E0,0E0,0E0,0E0,0E0,0E0,0E0],"parents":[2147483647,0,0,1,1,2,2,3,3,4,4,7,7,8,8,9,9,10,10,11,11,12,12,13,13,19,19,20,20,23,23,24,24],"right_children":[2,4,6,8,10,-1,-1,12,14,16,18,20,22,24,-1,-1,-1,-1,-1,26,28,-1,-1,30,32,-1,-1,-1,-1,-1,-1,-1,-1],"split_conditions":[1E0,5.4E1,3.1E1,1E0,2E0,-2.5253218E-1,-2.5124047E-2,4.4747406E2,1E0,2.382381E2,1E0,2.3706667E2,3E0,1.0838461E2,2.7561048E-1,-2.3184502E-1,1.2487262E-2,2.2649129E-1,-1.4060655E-1,2.1491667E2,8.096E3,2.140601E-1,5.7048317E-2,9.9875E1,3E0,-1.3073514E-2,2.2223903E-1,-1.7507374E-1,1.3836409E-2,1.238862E-2,2.5897855E-1,-1.00583896E-1,4.88699E-2],"split_indices":[32,3,3,16,6,0,0,2,17,2,15,2,8,2,0,0,0,0,0,2,1,0,0,2,5,0,0,0,0,0,0,0,0],"split_type":[0,0,0,0,0,0,0,0,0,0,0,0,0,0,0,0,0,0,0,0,0,0,0,0,0,0,0,0,0,0,0,0,0],"sum_hessian":[1.2040404E2,1.1757425E2,2.8297906E0,1.09535324E2,8.038928E0,1.5288154E0,1.3009751E0,6.885962E1,4.06757E1,4.918418E0,3.12051E0,6.663519E1,2.224427E0,3.556091E1,5.114793E0,3.822007E0,1.0964108E0,1.6246228E0,1.4958874E0,5.4313885E1,1.2321307E1,1.0806476E0,1.1437795E0,1.4764195E1,2.0796715E1,5.136778E1,2.9461057E0,7.4738555E0,4.847451E0,1.1419395E1,3.3448E0,9.218877E0,1.1577838E1],"tree_param":{"num_deleted":"0","num_feature":"33","num_nodes":"33","size_leaf_vector":"1"}},{"base_weights":[1.1482316E-2,2.8366422E-2,-5.292867E-1,5.0228998E-2,-3.6480448E-1,-2.2596745E-1,-2.093363E-2,-7.95502E-2,1.1581027E-1,-4.689794E-1,1.4770342E-2,-4.9805176E-1,-6.8933032E-3,6.9939904E-2,2.4974142E-1,8.113768E-3,-2.0034541E-1,-7.239814E-1,1.4558145E-2,6.175002E-1,-8.380787E-2,2.9614506E-2,2.3649526E-1,-4.2415973E-2,-2.6922625E-1,2.7838162E-1,2.388862E-2,1.0674085E-1,-5.939127E-2,-1.9951249E-3,1.5968724E-1],"categories":[],"categories_nodes":[],"categories_segments":[],"categories_sizes":[],"default_left":[0,0,0,0,0,0,0,0,0,0,0,0,0,0,0,0,0,0,0,0,0,0,0,0,0,0,0,0,0,0,0],"id":16,"left_children":[1,3,5,7,9,-1,-1,11,13,15,-1,17,19,21,-1,-1,-1,23,-1,25,27,29,-1,-1,-1,-1,-1,-1,-1,-1,-1],"loss_changes":[1.0969691E0,1.0142385E0,3.2186913E-1,9.508567E-1,2.9155606E-1,0E0,0E0,1.1439168E0,2.3712707E0,5.179131E-1,0E0,7.2269166E-1,1.6445116E0,2.0204155E0,0E0,0E0,0E0,2.7752376E-1,0E0,5.534109E-1,1.5965549E0,1.2402216E0,0E0,0E0,0E0,0E0,0E0,0E0,0E0,0E0,0E0],"parents":[2147483647,0,0,1,1,2,2,3,3,4,4,7,7,8,8,9,9,11,11,12,12,13,13,17,17,19,19,20,20,21,21],"right_children":[2,4,6,8,10,-1,-1,12,14,16,-1,18,20,22,-1,-1,-1,24,-1,26,28,30,-1,-1,-1,-1,-1,-1,-1,-1,-1],"split_conditions":[1E0,7E0,3.1E1,1E0,1E0,-2.2596745E-1,-2.093363E-2,1.193E3,1E0,1E0,1.4770342E-2,1E0,1.344E3,1E0,2.4974142E-1,8.113768E-3,-2.0034541E-1,1E0,1.4558145E-2,1.2E1,2.7E1,1E0,2.3649526E-1,-4.2415973E-2,-2.6922625E-1,2.7838162E-1,2.388862E-2,1.0674085E-1,-5.939127E-2,-1.9951249E-3,1.5968724E-1],"split_indices":[32,10,3,29,27,0,0,1,28,25,0,22,1,30,0,0,0,9,0,0,3,19,0,0,0,0,0,0,0,0,0],"split_type":[0,0,0,0,0,0,0,0,0,0,0,0,0,0,0,0,0,0,0,0,0,0,0,0,0,0,0,0,0,0,0],"sum_hessian":[1.1750029E2,1.1486158E2,2.63871E0,1.0963735E2,5.224224E0,1.3443507E0,1.2943593E0,3.6733063E1,7.290429E1,4.067996E0,1.1562282E0,4.567804E0,3.216526E1,6.955027E1,3.3540199E0,1.4113089E0,2.6566873E0,3.0022488E0,1.5655553E0,2.756836E0,2.9408422E1,6.683953E1,2.7107446E0,1.1051539E0,1.8970948E0,1.288157E0,1.4686791E0,5.6263323E0,2.3782091E1,6.326232E1,3.5772073E0],"tree_param":{"num_deleted":"0","num_feature":"33","num_nodes":"31","size_leaf_vector":"1"}},{"base_weights":[1.116535E-2,-4.1574445E-1,3.2629058E-2,-2.1769913E-1,2.8994238E-2,-1.6653752E-1,4.64248E-2,4.5654753E-1,1.2706507E-2,7.013451E-1,3.9573558E-2,-1.642585E-2,4.1629955E-1,2.4325335E-1,5.22901E-2,-1.5772967E-1,1.4686908E-1,-5.664548E-2,2.780527E-1,6.024457E-1,-5.8690306E-2,-8.261092E-3,-2.0932579E-1,1.440071E-1,-4.6059314E-2,2.372984E-1,5.096655E-2],"categories":[],"categories_nodes":[],"categories_segments":[],"categories_sizes":[],"default_left":[0,0,0,0,0,0,0,0,0,0,0,0,0,0,0,0,0,0,0,0,0,0,0,0,0,0,0],"id":17,"left_children":[1,3,5,-1,-1,-1,7,9,11,13,15,17,19,-1,-1,-1,-1,21,23,25,-1,-1,-1,-1,-1,-1,-1],"loss_changes":[1.0773375E0,9.642074E-1,9.295721E-1,0E0,0E0,0E0,1.5129961E0,8.2099926E-1,1.2121675E0,1.5757966E-1,1.3094915E0,1.1595697E0,9.0833795E-1,0E0,0E0,0E0,0E0,1.581973E0,1.1000409E0,3.195796E-1,0E0,0E0,0E0,0E0,0E0,0E0,0E0],"parents":[2147483647,0,0,1,1,2,2,6,6,7,7,8,8,9,9,10,10,11,11,12,12,17,17,18,18,19,19],"right_children":[2,4,6,-1,-1,-1,8,10,12,14,16,18,20,-1,-1,-1,-1,22,24,26,-1,-1,-1,-1,-1,-1,-1],"split_conditions":[8E0,4E0,6.53E2,-2.1769913E-1,2.8994238E-2,-1.6653752E-1,9.6E2,1E0,1E0,3.9E1,1E0,7.888E3,3.5E1,2.4325335E-1,5.22901E-2,-1.5772967E-1,1.4686908E-1,7.238E3,3.9E1,4E0,-5.8690306E-2,-8.261092E-3,-2.0932579E-1,1.440071E-1,-4.6059314E-2,2.372984E-1,5.096655E-2],"split_indices":[0,5,1,0,0,0,1,11,12,3,21,1,0,0,0,0,0,1,0,5,0,0,0,0,0,0,0],"split_type":[0,0,0,0,0,0,0,0,0,0,0,0,0,0,0,0,0,0,0,0,0,0,0,0,0,0,0],"sum_hessian":[1.1509347E2,4.6301837E0,1.1046328E2,2.6257663E0,2.0044174E0,1.6334368E0,1.0882984E2,7.3150682E0,1.0151478E2,4.179421E0,3.135647E0,9.557522E1,5.9395576E0,3.0146258E0,1.1647954E0,1.3150753E0,1.8205717E0,8.4800835E1,1.07743845E1,4.5660896E0,1.3734682E0,8.2115456E1,2.6853766E0,7.26316E0,3.5112243E0,2.602868E0,1.9632213E0],"tree_param":{"num_deleted":"0","num_feature":"33","num_nodes":"27","size_leaf_vector":"1"}},{"base_weights":[8.854155E-3,1.0440923E-1,-7.989491E-2,5.3040974E-2,5.811492E-1,-1.6307075E-1,6.2539265E-2,1.8924251E-2,2.0168793E-1,2.1106891E-1,2.3322807E-1,-3.0792946E-1,9.192918E-2,-2.1377476E-2,2.0838934E-1,1.1221152E-1,-2.4304177E-1,-7.1541235E-2,1.720343E-1,-4.289184E-1,1.5757836E-1,-1.3501932E-1,4.3160716E-1,5.802045E-2,-1.6368589E-1,-4.3148962E-1,1.6645932E-1,-7.719835E-1,1.4700241E-1,7.059402E-2,-5.546807E-1,-1.13120206E-1,4.9165305E-1,1.8917188E-1,-4.7976825E-1,-7.281292E-3,3.3278713E-1,-3.557317E-2,2.34044E-1,-2.4238588E-1,6.8683125E-2,7.085929E-2,-6.302058E-2,-2.0477518E-2,-2.8401202E-1,1.5945765E-1,-7.540102E-2,-1.2559246E-1,1.2704156E-1,-2.0483303E-1,-1.7877728E-3,2.0824294E-1,8.662158E-3,1.0526724E-1,-7.111857E-2,-2.248413E-1,7.4157156E-2,1.607936E-1,-1.7523582E-1,3.6349956E-2,-1.5433301E-1],"categories":[],"categories_nodes":[],"categories_segments":[],"categories_sizes":[],"default_left":[0,0,0,0,0,0,0,0,0,0,0,0,0,0,0,0,0,0,0,0,0,0,0,0,0,0,0,0,0,0,0,0,0,0,0,0,0,0,0,0,0,0,0,0,0,0,0,0,0,0,0,0,0,0,0,0,0,0,0,0,0],"id":18,"left_children":[1,3,5,7,9,11,13,15,-1,17,-1,19,21,23,-1,25,27,-1,-1,29,31,33,35,37,-1,39,41,43,45,47,49,-1,51,53,55,57,-1,59,-1,-1,-1,-1,-1,-1,-1,-1,-1,-1,-1,-1,-1,-1,-1,-1,-1,-1,-1,-1,-1,-1,-1],"loss_changes":[9.767797E-1,1.326456E0,7.183398E-1,1.0675542E0,2.20204E-1,1.4325037E0,1.222086E0,1.236759E0,0E0,6.590461E-1,0E0,1.4459026E0,1.1792779E0,9.0834683E-1,0E0,1.168427E0,2.8599145E0,0E0,0E0,1.2762437E0,1.217716E0,1.1501777E0,1.8112503E0,1.3251258E0,0E0,1.0928311E0,9.5627624E-1,6.4976025E-1,1.4358646E0,1.014226E0,1.1096401E0,0E0,3.5395968E-1,4.6935466E-1,1.1413916E0,1.7774823E0,0E0,1.4096005E0,0E0,0E0,0E0,0E0,0E0,0E0,0E0,0E0,0E0,0E0,0E0,0E0,0E0,0E0,0E0,0E0,0E0,0E0,0E0,0E0,0E0,0E0,0E0],"parents":[2147483647,0,0,1,1,2,2,3,3,4,4,5,5,6,6,7,7,9,9,11,11,12,12,13,13,15,15,16,16,19,19,20,20,21,21,22,22,23,23,25,25,26,26,27,27,28,28,29,29,30,30,32,32,33,33,34,34,35,35,37,37],"right_children":[2,4,6,8,10,12,14,16,-1,18,-1,20,22,24,-1,26,28,-1,-1,30,32,34,36,38,-1,40,42,44,46,48,50,-1,52,54,56,58,-1,60,-1,-1,-1,-1,-1,-1,-1,-1,-1,-1,-1,-1,-1,-1,-1,-1,-1,-1,-1,-1,-1,-1,-1],"split_conditions":[2E0,4.3E1,1E0,4.4747406E2,1E0,2E0,1E0,2E0,2.0168793E-1,3.6E1,2.3322807E-1,1E0,4E0,2.4990475E2,2.0838934E-1,2.3E1,1E0,-7.1541235E-2,1.720343E-1,1E0,1.0838461E2,3E0,1E0,2.2945833E2,-1.6368589E-1,1E0,3.6E1,8.3E1,2.7E1,3.5E1,1E0,-1.13120206E-1,3E0,4.542E3,1E0,1.559E3,3.3278713E-1,3.4E1,2.34044E-1,-2.4238588E-1,6.8683125E-2,7.085929E-2,-6.302058E-2,-2.0477518E-2,-2.8401202E-1,1.5945765E-1,-7.540102E-2,-1.2559246E-1,1.2704156E-1,-2.0483303E-1,-1.7877728E-3,2.0824294E-1,8.662158E-3,1.0526724E-1,-7.111857E-2,-2.248413E-1,7.4157156E-2,1.607936E-1,-1.7523582E-1,3.6349956E-2,-1.5433301E-1],"split_indices":[8,0,16,2,8,6,17,11,0,3,0,21,8,2,0,3,29,0,0,25,2,5,13,2,0,9,0,2,3,3,18,0,5,1,30,1,0,3,0,0,0,0,0,0,0,0,0,0,0,0,0,0,0,0,0,0,0,0,0,0,0],"split_type":[0,0,0,0,0,0,0,0,0,0,0,0,0,0,0,0,0,0,0,0,0,0,0,0,0,0,0,0,0,0,0,0,0,0,0,0,0,0,0,0,0,0,0,0,0,0,0,0,0,0,0,0,0,0,0,0,0,0,0,0,0],"sum_hessian":[1.1319689E2,5.4423397E1,5.877349E1,5.013289E1,4.290511E0,3.7013947E1,2.1759544E1,4.8491863E1,1.6410232E0,2.206163E0,2.0843482E0,2.3472355E1,1.3541592E1,2.0062252E1,1.697292E0,3.617975E1,1.2312114E1,1.1372751E0,1.068888E0,1.869261E1,4.779746E0,8.479023E0,5.062568E0,1.8195776E1,1.8664756E0,2.651447E0,3.35283E1,4.810007E0,7.5021067E0,3.8478992E0,1.4844709E1,1.7886072E0,2.9911387E0,4.6023717E0,3.876651E0,3.673046E0,1.3895221E0,1.6949692E1,1.2460842E0,1.5465231E0,1.104924E0,2.8603268E1,4.925035E0,1.2333125E0,3.5766947E0,3.647125E0,3.8549817E0,1.5343238E0,2.3135755E0,1.1837099E1,3.0076108E0,1.7329417E0,1.258197E0,3.4646144E0,1.1377574E0,2.805018E0,1.0716332E0,1.9280565E0,1.7449896E0,1.3332716E1,3.6169763E0],"tree_param":{"num_deleted":"0","num_feature":"33","num_nodes":"61","size_leaf_vector":"1"}},{"base_weights":[9.086448E-3,-3.6810018E-2,2.0388912E-1,-4.0595888E-4,-2.968841E-1,-1.8654041E-1,3.5667133E-1,1.8490635E-2,-1.5583552E-1,-4.8926803E-1,2.0769325E-1,-5.289025E-1,2.764382E-1,4.505422E-1,-1.4978775E-1,-4.0559503E-1,4.198781E-2,-6.769192E-2,-2.708063E-1,1.6204529E-1,-6.718886E-2,-1.1266973E-2,-2.0293011E-1,-7.801953E-2,1.8414262E-1,5.933128E-1,3.7218235E-2,1.106819E-1,-1.707105E-1,4.2474784E-2,-2.791112E-1,4.5720538E-1,7.336574E-3,1.4730965E-1,-3.4353024E-1,2.1854925E-1,2.2743236E-1,1.5746143E-1,-1.1960307E-1,3.345844E-2,2.1129762E-1,-1.1360478E-1,1.2286396E-2,-1.957389E-1,1.3866822E-2,1.8570055E-1,-8.1340656E-2],"categories":[],"categories_nodes":[],"categories_segments":[],"categories_sizes":[],"default_left":[0,0,0,0,0,0,0,0,0,0,0,0,0,0,0,0,0,0,0,0,0,0,0,0,0,0,0,0,0,0,0,0,0,0,0,0,0,0,0,0,0,0,0,0,0,0,0],"id":19,"left_children":[1,3,5,7,9,11,13,15,-1,17,19,21,23,25,27,29,31,33,-1,-1,-1,-1,-1,-1,-1,35,37,-1,-1,-1,-1,39,41,-1,43,45,-1,-1,-1,-1,-1,-1,-1,-1,-1,-1,-1],"loss_changes":[9.951616E-1,8.543448E-1,1.3321254E0,7.9592603E-1,1.1772099E0,1.1961468E0,8.087932E-1,7.97467E-1,0E0,1.3889301E0,6.606363E-1,2.7551627E-1,7.8818697E-1,7.689009E-1,9.033938E-1,1.3392885E0,1.0773687E0,9.701444E-1,0E0,0E0,0E0,0E0,0E0,0E0,0E0,4.4547486E-1,1.1675572E0,0E0,0E0,0E0,0E0,4.142877E-1,9.2838484E-1,0E0,5.2020335E-1,1.0360452E0,0E0,0E0,0E0,0E0,0E0,0E0,0E0,0E0,0E0,0E0,0E0],"parents":[2147483647,0,0,1,1,2,2,3,3,4,4,5,5,6,6,7,7,9,9,10,10,11,11,12,12,13,13,14,14,15,15,16,16,17,17,25,25,26,26,31,31,32,32,34,34,35,35],"right_children":[2,4,6,8,10,12,14,16,-1,18,20,22,24,26,28,30,32,34,-1,-1,-1,-1,-1,-1,-1,36,38,-1,-1,-1,-1,40,42,-1,44,46,-1,-1,-1,-1,-1,-1,-1,-1,-1,-1,-1],"split_conditions":[1E0,4.5E1,1E0,1E0,4.542E3,1E0,5E0,5.535653E1,-1.5583552E-1,1.526E3,2.8E1,3E0,3.1E1,1E0,1E0,1E0,9.6E2,2E0,-2.708063E-1,1.6204529E-1,-6.718886E-2,-1.1266973E-2,-2.0293011E-1,-7.801953E-2,1.8414262E-1,1.2363333E2,2E0,1.106819E-1,-1.707105E-1,4.2474784E-2,-2.791112E-1,2E0,1.237E3,1.4730965E-1,1.193E3,8.1916664E1,2.2743236E-1,1.5746143E-1,-1.1960307E-1,3.345844E-2,2.1129762E-1,-1.1360478E-1,1.2286396E-2,-1.957389E-1,1.3866822E-2,1.8570055E-1,-8.1340656E-2],"split_indices":[23,3,9,32,1,26,8,2,0,1,0,5,3,15,13,21,1,10,0,0,0,0,0,0,0,2,9,0,0,0,0,9,1,0,1,2,0,0,0,0,0,0,0,0,0,0,0],"split_type":[0,0,0,0,0,0,0,0,0,0,0,0,0,0,0,0,0,0,0,0,0,0,0,0,0,0,0,0,0,0,0,0,0,0,0,0,0,0,0,0,0,0,0,0,0,0,0],"sum_hessian":[1.0946679E2,8.925008E1,2.0216717E1,7.916979E1,1.0080288E1,5.623951E0,1.4592765E1,7.7319244E1,1.8505405E0,7.319767E0,2.7605214E0,3.1512692E0,2.4726818E0,1.2404104E1,2.188661E0,3.205409E0,7.411384E1,4.2003174E0,3.1194499E0,1.4174603E0,1.343061E0,1.0174077E0,2.1338615E0,1.0430743E0,1.4296074E0,8.895834E0,3.50827E0,1.0319018E0,1.1567594E0,1.9266824E0,1.2787267E0,4.7693505E0,6.934449E1,1.1304303E0,3.069887E0,3.427494E0,5.4683394E0,1.559487E0,1.948783E0,2.593214E0,2.1761365E0,4.7330494E0,6.4611435E1,1.3364916E0,1.7333953E0,1.7402648E0,1.6872294E0],"tree_param":{"num_deleted":"0","num_feature":"33","num_nodes":"47","size_leaf_vector":"1"}},{"base_weights":[4.1809846E-3,-3.6294833E-1,2.183735E-2,-5.5749995E-1,5.9224468E-2,-1.7645273E-2,1.9543466E-1,-2.0488681E-1,-5.6724984E-2,2.723155E-3,-4.0536666E-1,-1.5796257E-2,5.131598E-1,-7.4456654E-2,1.2466321E-1,6.496021E-3,-1.7869474E-1,-4.754315E-1,2.7233207E-1,1.9820951E-1,7.162137E-2,3.4482217E-1,-1.4947769E-1,5.5853453E-2,2.215828E-1,1.4004146E-2,-6.752383E-1,-4.5416158E-2,3.897872E-1,-1.0337386E-1,1.3526277E-1,1.9138528E-1,-1.8726138E-2,-9.1748536E-2,-9.731813E-4,3.9850675E-2,-9.017338E-2,-2.4452992E-1,-4.2892765E-2,2.0026565E-1,2.4952952E-2],"categories":[],"categories_nodes":[],"categories_segments":[],"categories_sizes":[],"default_left":[0,0,0,0,0,0,0,0,0,0,0,0,0,0,0,0,0,0,0,0,0,0,0,0,0,0,0,0,0,0,0,0,0,0,0,0,0,0,0,0,0],"id":20,"left_children":[1,3,5,7,-1,9,11,-1,-1,13,15,17,19,21,23,-1,-1,25,27,-1,29,31,33,35,-1,-1,37,-1,39,-1,-1,-1,-1,-1,-1,-1,-1,-1,-1,-1,-1],"loss_changes":[7.081694E-1,6.56646E-1,7.1635777E-1,5.4962873E-2,0E0,6.7755806E-1,1.307138E0,0E0,0E0,7.8453606E-1,3.608243E-1,1.7976754E0,4.5815206E-1,1.6579983E0,1.323392E0,0E0,0E0,5.7585657E-1,4.75995E-1,0E0,6.391542E-1,1.001229E0,1.0054303E0,8.6663294E-1,0E0,0E0,1.692003E-1,0E0,5.2699757E-1,0E0,0E0,0E0,0E0,0E0,0E0,0E0,0E0,0E0,0E0,0E0,0E0],"parents":[2147483647,0,0,1,1,2,2,3,3,5,5,6,6,9,9,10,10,11,11,12,12,13,13,14,14,17,17,18,18,20,20,21,21,22,22,23,23,26,26,28,28],"right_children":[2,4,6,8,-1,10,12,-1,-1,14,16,18,20,22,24,-1,-1,26,28,-1,30,32,34,36,-1,-1,38,-1,40,-1,-1,-1,-1,-1,-1,-1,-1,-1,-1,-1,-1],"split_conditions":[8E0,2.333E3,1E0,4E0,5.9224468E-2,7E0,1E0,-2.0488681E-1,-5.6724984E-2,1E0,1E0,3E0,3E0,1E0,1E0,6.496021E-3,-1.7869474E-1,2E0,1E0,1.9820951E-1,4.006E3,3E0,1.16666664E2,2E0,2.215828E-1,1.4004146E-2,4.3E1,-4.5416158E-2,4E0,-1.0337386E-1,1.3526277E-1,1.9138528E-1,-1.8726138E-2,-9.1748536E-2,-9.731813E-4,3.9850675E-2,-9.017338E-2,-2.4452992E-1,-4.2892765E-2,2.0026565E-1,2.4952952E-2],"split_indices":[0,1,23,5,0,10,26,0,0,16,25,4,8,26,17,0,0,4,9,0,1,10,2,9,0,0,3,0,10,0,0,0,0,0,0,0,0,0,0,0,0],"split_type":[0,0,0,0,0,0,0,0,0,0,0,0,0,0,0,0,0,0,0,0,0,0,0,0,0,0,0,0,0,0,0,0,0,0,0,0,0,0,0,0,0],"sum_hessian":[1.0702611E2,4.013663E0,1.0301244E2,2.9830816E0,1.0305814E0,8.465666E1,1.8355785E1,1.5884206E0,1.3946608E0,8.1374725E1,3.2819366E0,1.1596471E1,6.759315E0,5.007196E1,3.1302765E1,1.2848223E0,1.9971142E0,4.217869E0,7.3786016E0,4.6943564E0,2.0649583E0,7.053713E0,4.3018246E1,2.912902E1,2.1737435E0,1.3794978E0,2.838371E0,1.5387322E0,5.8398695E0,1.0281152E0,1.0368432E0,3.772091E0,3.2816222E0,2.0262522E1,2.2755726E1,2.4471071E1,4.6579494E0,1.8269268E0,1.0114442E0,2.4464147E0,3.3934548E0],"tree_param":{"num_deleted":"0","num_feature":"33","num_nodes":"41","size_leaf_vector":"1"}},{"base_weights":[3.7940915E-3,1.8162612E-2,-4.2860457E-1,4.2363647E-3,4.0162688E-1,-1.7841896E-1,-2.343821E-2,-4.7994784E-1,2.212051E-2,-4.7401197E-2,2.1496825E-1,-2.528764E-2,-1.9257669E-1,1.9963543E-1,-2.9703503E-2,-1.2279441E-1,4.5880106E-1,-2.6411685E-1,-5.6012766E-3,-1.02916576E-1,1.3353369E-1,1.7157972E-1,-5.6796636E-2,1.0833476E-2,-8.6482726E-2],"categories":[],"categories_nodes":[],"categories_segments":[],"categories_sizes":[],"default_left":[0,0,0,0,0,0,0,0,0,0,0,0,0,0,0,0,0,0,0,0,0,0,0,0,0],"id":21,"left_children":[1,3,5,7,9,-1,-1,11,13,-1,-1,-1,-1,15,17,19,21,-1,23,-1,-1,-1,-1,-1,-1],"loss_changes":[6.639074E-1,5.492435E-1,1.536516E-1,8.8142395E-1,7.485569E-1,0E0,0E0,1.7828327E-1,9.0691316E-1,0E0,0E0,0E0,0E0,1.9165013E0,1.5672147E0,1.492196E0,1.0286443E0,0E0,9.014802E-1,0E0,0E0,0E0,0E0,0E0,0E0],"parents":[2147483647,0,0,1,1,2,2,3,3,4,4,7,7,8,8,13,13,14,14,15,15,16,16,18,18],"right_children":[2,4,6,8,10,-1,-1,12,14,-1,-1,-1,-1,16,18,20,22,-1,24,-1,-1,-1,-1,-1,-1],"split_conditions":[6.3E1,4.72E2,1.3931665E2,8E0,1E0,-1.7841896E-1,-2.343821E-2,1E0,1.388E3,-4.7401197E-2,2.1496825E-1,-2.528764E-2,-1.9257669E-1,2.8E1,1.414E3,1.264E3,5E0,-2.6411685E-1,2E0,-1.02916576E-1,1.3353369E-1,1.7157972E-1,-5.6796636E-2,1.0833476E-2,-8.6482726E-2],"split_indices":[3,2,2,0,30,0,0,11,1,0,0,0,0,3,1,1,8,0,7,0,0,0,0,0,0],"split_type":[0,0,0,0,0,0,0,0,0,0,0,0,0,0,0,0,0,0,0,0,0,0,0,0,0],"sum_hessian":[1.0460604E2,1.0216898E2,2.4370592E0,9.956416E1,2.6048179E0,1.1805615E0,1.2564977E0,2.6262486E0,9.693792E1,1.1174419E0,1.487376E0,1.2044754E0,1.4217733E0,2.1260675E1,7.567724E1,9.708479E0,1.1552196E1,1.1062138E0,7.457103E1,7.2806373E0,2.427842E0,9.935491E0,1.6167055E0,6.574205E1,8.828977E0],"tree_param":{"num_deleted":"0","num_feature":"33","num_nodes":"25","size_leaf_vector":"1"}},{"base_weights":[-1.6715688E-3,-2.1168971E-2,3.0698496E-1,-9.112808E-4,-3.1426728E-1,4.841542E-1,-3.6670554E-2,8.029585E-2,-8.369149E-2,-1.896827E-1,1.8000896E-1,2.0931645E-1,1.6858384E-1,-4.7033053E-2,2.1255122E-1,-2.988399E-1,1.1493893E-1,1.7284375E-1,-1.0051412E-1,9.8749585E-2,-2.3278203E-2,1.3718468E-1,-6.4737254E-1,3.0466467E-1,-1.8152744E-1,-3.729925E-1,2.5535938E-1,5.596861E-1,-4.048786E-2,1.2471464E-1,-3.7654143E-2,-2.867688E-1,7.834784E-2,1.2069495E-1,-9.298594E-2,1.01617165E-2,-1.6561648E-1,1.2363238E-1,2.5141455E-4,2.334538E-1,-3.5820726E-2,-8.372019E-2,5.8143172E-2],"categories":[],"categories_nodes":[],"categories_segments":[],"categories_sizes":[],"default_left":[0,0,0,0,0,0,0,0,0,0,0,0,0,0,0,0,0,0,0,0,0,0,0,0,0,0,0,0,0,0,0,0,0,0,0,0,0,0,0,0,0,0,0],"id":22,"left_children":[1,3,5,7,9,11,-1,13,15,-1,17,-1,19,21,23,25,27,-1,-1,-1,-1,29,31,33,-1,35,37,39,41,-1,-1,-1,-1,-1,-1,-1,-1,-1,-1,-1,-1,-1,-1],"loss_changes":[6.351226E-1,5.886324E-1,5.360475E-1,6.3712245E-1,1.1212468E0,1.9511044E-1,0E0,8.157662E-1,2.0398362E0,0E0,8.6381483E-1,0E0,1.5170585E-1,2.8754504E0,1.9656838E0,1.032439E0,1.7593129E0,0E0,0E0,0E0,0E0,1.5233216E0,1.9570477E0,1.4404192E0,0E0,1.5136983E0,1.3070802E-1,1.0682802E0,1.1468822E0,0E0,0E0,0E0,0E0,0E0,0E0,0E0,0E0,0E0,0E0,0E0,0E0,0E0,0E0],"parents":[2147483647,0,0,1,1,2,2,3,3,4,4,5,5,7,7,8,8,10,10,12,12,13,13,14,14,15,15,16,16,21,21,22,22,23,23,25,25,26,26,27,27,28,28],"right_children":[2,4,6,8,10,12,-1,14,16,-1,18,-1,20,22,24,26,28,-1,-1,-1,-1,30,32,34,-1,36,38,40,42,-1,-1,-1,-1,-1,-1,-1,-1,-1,-1,-1,-1,-1,-1],"split_conditions":[1E0,5.4E1,2.8E1,1.3116667E2,2E0,1E0,-3.6670554E-2,1.778E3,1E0,-1.896827E-1,1E0,2.0931645E-1,4E0,1.388E3,4.3E1,8.096E3,1E0,1.7284375E-1,-1.0051412E-1,9.8749585E-2,-2.3278203E-2,1E0,1.231E2,2E0,-1.8152744E-1,1E0,3E1,1E0,1E0,1.2471464E-1,-3.7654143E-2,-2.867688E-1,7.834784E-2,1.2069495E-1,-9.298594E-2,1.01617165E-2,-1.6561648E-1,1.2363238E-1,2.5141455E-4,2.334538E-1,-3.5820726E-2,-8.372019E-2,5.8143172E-2],"split_indices":[12,3,0,2,6,11,0,1,31,0,15,0,4,1,3,1,8,0,0,0,0,11,2,7,0,9,3,16,13,0,0,0,0,0,0,0,0,0,0,0,0,0,0],"split_type":[0,0,0,0,0,0,0,0,0,0,0,0,0,0,0,0,0,0,0,0,0,0,0,0,0,0,0,0,0,0,0,0,0,0,0,0,0,0,0,0,0,0,0],"sum_hessian":[1.03457306E2,9.818642E1,5.2708836E0,9.277717E1,5.409249E0,3.6402934E0,1.6305901E0,4.6848724E1,4.5928444E1,3.1216443E0,2.2876046E0,1.4488055E0,2.1914878E0,2.419722E1,2.2651505E1,2.1805313E1,2.4123133E1,1.2260352E0,1.0615692E0,1.1223059E0,1.0691819E0,1.9105938E1,5.091282E0,2.0921888E1,1.7296172E0,1.9520424E1,2.2848883E0,5.5735865E0,1.8549547E1,8.9908E0,1.0115138E1,3.761726E0,1.329556E0,1.835157E1,2.5703177E0,6.213339E0,1.3307086E1,1.0308712E0,1.2540171E0,4.106443E0,1.4671434E0,9.096134E0,9.453412E0],"tree_param":{"num_deleted":"0","num_feature":"33","num_nodes":"43","size_leaf_vector":"1"}},{"base_weights":[-1.6073706E-3,1.006525E-2,-1.20424174E-1,-1.5172134E-2,2.0087622E-1,-2.8452092E-1,3.0999795E-2,1.5883451E-2,2.2254947E-1,-5.289173E-1,1.5104568E-1,-1.2177631E-2,2.1158788E-1,2.9218563E-1,-4.2509973E-1,2.683855E-2,-6.4552724E-1,1.5742828E-1,-1.600333E-1,6.780043E-2,-2.1391642E-1,-1.06904E-1,5.487085E-1,-9.731003E-2,2.7512202E-1,1.2911264E-2,-1.7939328E-1,-2.4180056E-1,2.102619E-2,-1.20426975E-1,6.607123E-2,-5.3272724E-2,4.2744137E-2,-1.4604555E-1,9.146399E-2,4.2417582E-2,-2.2019453E-1,2.2792153E-1,3.0437576E-2,5.339598E-2,-1.4996184E-1],"categories":[],"categories_nodes":[],"categories_segments":[],"categories_sizes":[],"default_left":[0,0,0,0,0,0,0,0,0,0,0,0,0,0,0,0,0,0,0,0,0,0,0,0,0,0,0,0,0,0,0,0,0,0,0,0,0,0,0,0,0],"id":23,"left_children":[1,3,-1,5,7,9,11,13,-1,15,17,19,21,23,25,-1,27,-1,29,31,33,35,37,39,-1,-1,-1,-1,-1,-1,-1,-1,-1,-1,-1,-1,-1,-1,-1,-1,-1],"loss_changes":[4.7699606E-1,4.8193505E-1,0E0,1.1126558E0,1.1577508E0,1.472995E0,6.0041314E-1,1.3098243E0,0E0,6.7826486E-1,7.2124326E-1,1.0281333E0,1.6529903E0,1.6895236E0,3.620516E-1,0E0,9.0189004E-1,0E0,4.333503E-1,8.636049E-1,2.7076082E0,1.4229329E0,6.191406E-1,6.380396E-1,0E0,0E0,0E0,0E0,0E0,0E0,0E0,0E0,0E0,0E0,0E0,0E0,0E0,0E0,0E0,0E0,0E0],"parents":[2147483647,0,0,1,1,3,3,4,4,5,5,6,6,7,7,9,9,10,10,11,11,12,12,13,13,14,14,16,16,18,18,19,19,20,20,21,21,22,22,23,23],"right_children":[2,4,-1,6,8,10,12,14,-1,16,18,20,22,24,26,-1,28,-1,30,32,34,36,38,40,-1,-1,-1,-1,-1,-1,-1,-1,-1,-1,-1,-1,-1,-1,-1,-1,-1],"split_conditions":[1E0,1E0,-1.20424174E-1,2E0,1E0,3.3E1,1E0,2.9E1,2.2254947E-1,1E0,1.106E2,2E0,1.9E1,1E0,1.33E3,2.683855E-2,1.745E2,1.5742828E-1,2.4741667E2,2E0,2E0,2E0,3E0,2.7E1,2.7512202E-1,1.2911264E-2,-1.7939328E-1,-2.4180056E-1,2.102619E-2,-1.20426975E-1,6.607123E-2,-5.3272724E-2,4.2744137E-2,-1.4604555E-1,9.146399E-2,4.2417582E-2,-2.2019453E-1,2.2792153E-1,3.0437576E-2,5.339598E-2,-1.4996184E-1],"split_indices":[32,18,0,5,17,3,28,3,0,10,2,11,0,31,1,0,2,0,2,10,6,6,8,3,0,0,0,0,0,0,0,0,0,0,0,0,0,0,0,0,0],"split_type":[0,0,0,0,0,0,0,0,0,0,0,0,0,0,0,0,0,0,0,0,0,0,0,0,0,0,0,0,0,0,0,0,0,0,0,0,0,0,0,0,0],"sum_hessian":[1.0034498E2,9.844562E1,1.8993614E0,8.775879E1,1.0686825E1,1.2086824E1,7.567197E1,8.73056E0,1.9562646E0,7.605218E0,4.481607E0,6.1823048E1,1.3848919E1,5.5749474E0,3.1556134E0,1.2435454E0,6.3616724E0,1.7238051E0,2.7578018E0,4.4747215E1,1.707583E1,7.4723606E0,6.376559E0,3.9544158E0,1.6205314E0,1.0536039E0,2.1020095E0,5.0932236E0,1.2684486E0,1.6529254E0,1.1048763E0,1.0119557E1,3.462766E1,1.1230105E1,5.845725E0,5.9076905E0,1.56467E0,3.857671E0,2.5188875E0,2.679725E0,1.2746909E0],"tree_param":{"num_deleted":"0","num_feature":"33","num_nodes":"41","size_leaf_vector":"1"}},{"base_weights":[-8.8346604E-4,7.087384E-2,-6.722808E-2,3.203999E-2,5.574288E-1,-1.8030974E-1,1.815194E-2,9.274311E-2,-2.5664735E-1,4.2661984E-2,2.0017985E-1,7.344416E-2,-4.1557452E-1,-7.940621E-2,5.510716E-1,4.8647253E-3,6.941313E-1,-6.662277E-1,2.7852502E-1,-5.44394E-1,2.804988E-1,4.662117E-2,-6.175288E-1,6.609392E-2,-4.4273797E-1,8.147718E-1,-2.3446716E-2,1.0382679E-1,-5.9687597E-1,5.539977E-2,2.5019905E-1,-2.7008072E-1,-1.7941376E-2,-8.802165E-2,1.7845665E-1,-3.9100725E-2,-2.06101E-1,-1.2970056E-1,5.344453E-1,-1.2553538E-1,3.004917E-1,4.794562E-2,-7.49396E-1,2.3501933E-1,-3.2709766E-2,-6.2082386E-1,-4.175336E-3,3.1601334E-1,5.4768097E-2,1.06792435E-1,-9.421952E-3,-2.5896245E-1,-1.8754702E-2,1.1016582E-1,-1.247749E-1,2.0417209E-1,-1.7411316E-2,-1.6756775E-2,1.5152813E-1,-2.7420205E-1,-4.7307465E-2,-1.628514E-1,3.6805544E-2,-2.1801975E-1,-4.2896654E-2,1.15926646E-1,-1.17256485E-1],"categories":[],"categories_nodes":[],"categories_segments":[],"categories_sizes":[],"default_left":[0,0,0,0,0,0,0,0,0,0,0,0,0,0,0,0,0,0,0,0,0,0,0,0,0,0,0,0,0,0,0,0,0,0,0,0,0,0,0,0,0,0,0,0,0,0,0,0,0,0,0,0,0,0,0,0,0,0,0,0,0,0,0,0,0,0,0],"id":24,"left_children":[1,3,5,7,9,11,13,15,17,-1,-1,19,21,23,25,27,29,31,33,35,37,39,41,43,45,47,-1,49,51,-1,-1,-1,-1,-1,-1,-1,-1,53,55,-1,57,-1,59,-1,61,63,65,-1,-1,-1,-1,-1,-1,-1,-1,-1,-1,-1,-1,-1,-1,-1,-1,-1,-1,-1,-1],"loss_changes":[4.770198E-1,8.917746E-1,5.058729E-1,8.236892E-1,6.461656E-2,1.3729566E0,1.6331019E0,2.02861E0,1.9820365E0,0E0,0E0,1.6453476E0,1.1319642E0,1.4414704E0,8.694589E-1,2.119639E0,1.947906E-1,6.469214E-1,9.449422E-1,1.0347736E-1,1.048421E0,6.59833E-1,9.700589E-1,1.4391686E0,6.0415137E-1,3.3711696E-1,0E0,1.0520656E0,6.6165173E-1,0E0,0E0,0E0,0E0,0E0,0E0,0E0,0E0,7.783356E-1,5.5901885E-1,0E0,2.8399864E-1,0E0,5.6375074E-1,0E0,1.5323405E0,1.7534924E-1,6.419508E-1,0E0,0E0,0E0,0E0,0E0,0E0,0E0,0E0,0E0,0E0,0E0,0E0,0E0,0E0,0E0,0E0,0E0,0E0,0E0,0E0],"parents":[2147483647,0,0,1,1,2,2,3,3,4,4,5,5,6,6,7,7,8,8,11,11,12,12,13,13,14,14,15,15,16,16,17,17,18,18,19,19,20,20,21,21,22,22,23,23,24,24,25,25,27,27,28,28,37,37,38,38,40,40,42,42,44,44,45,45,46,46],"right_children":[2,4,6,8,10,12,14,16,18,-1,-1,20,22,24,26,28,30,32,34,36,38,40,42,44,46,48,-1,50,52,-1,-1,-1,-1,-1,-1,-1,-1,54,56,-1,58,-1,60,-1,62,64,66,-1,-1,-1,-1,-1,-1,-1,-1,-1,-1,-1,-1,-1,-1,-1,-1,-1,-1,-1,-1],"split_conditions":[2E0,4.8E1,1E0,5.302E3,1.2822223E2,2.4E1,2E0,4.222E3,8.072E3,4.2661984E-2,2.0017985E-1,2.8E1,2.9E1,4E0,4E0,3.573E3,1E0,3E0,1E0,1.837E3,1.3E1,3E0,8.02E1,2.3E1,1E0,4.615E3,-2.3446716E-2,1E0,3E0,5.539977E-2,2.5019905E-1,-2.7008072E-1,-1.7941376E-2,-8.802165E-2,1.7845665E-1,-3.9100725E-2,-2.06101E-1,3.5E1,2E0,-1.2553538E-1,6.361E3,4.794562E-2,4.2E1,2.3501933E-1,2.5E1,3.8E1,1.6E1,3.1601334E-1,5.4768097E-2,1.06792435E-1,-9.421952E-3,-2.5896245E-1,-1.8754702E-2,1.1016582E-1,-1.247749E-1,2.0417209E-1,-1.7411316E-2,-1.6756775E-2,1.5152813E-1,-2.7420205E-1,-4.7307465E-2,-1.628514E-1,3.6805544E-2,-2.1801975E-1,-4.2896654E-2,1.15926646E-1,-1.17256485E-1],"split_indices":[8,0,13,1,2,0,6,1,1,0,0,3,3,8,4,1,17,4,9,1,0,8,2,3,21,1,0,9,4,0,0,0,0,0,0,0,0,3,11,0,1,0,3,0,3,3,0,0,0,0,0,0,0,0,0,0,0,0,0,0,0,0,0,0,0,0,0],"split_type":[0,0,0,0,0,0,0,0,0,0,0,0,0,0,0,0,0,0,0,0,0,0,0,0,0,0,0,0,0,0,0,0,0,0,0,0,0,0,0,0,0,0,0,0,0,0,0,0,0,0,0,0,0,0,0,0,0,0,0,0,0,0,0,0,0,0,0],"sum_hessian":[9.819844E1,4.714205E1,5.1056385E1,4.4644638E1,2.497413E0,2.1486593E1,2.9569794E1,3.7448895E1,7.195746E0,1.002464E0,1.4949489E0,1.06680155E1,1.0818577E1,2.5713573E1,3.8562195E0,3.355389E1,3.895003E0,3.9374418E0,3.2583039E0,2.2688072E0,8.399208E0,3.5235884E0,7.2949886E0,1.8944952E1,6.768622E0,2.5096037E0,1.3466158E0,2.952558E1,4.0283103E0,1.3387749E0,2.5562282E0,2.4913723E0,1.4460695E0,1.1861669E0,2.072137E0,1.0715517E0,1.1972556E0,3.3986442E0,5.000564E0,1.0153164E0,2.508272E0,1.0272804E0,6.2677083E0,1.4547558E0,1.7490196E1,4.5183005E0,2.2503214E0,1.3383217E0,1.1712822E0,9.737435E0,1.9788145E1,2.2776802E0,1.7506303E0,1.1386813E0,2.2599628E0,3.8919778E0,1.1085864E0,1.1800411E0,1.3282309E0,4.4774036E0,1.7903047E0,3.501673E0,1.39885235E1,3.2721636E0,1.2461367E0,1.1198205E0,1.1305009E0],"tree_param":{"num_deleted":"0","num_feature":"33","num_nodes":"67","size_leaf_vector":"1"}},{"base_weights":[-1.5756789E-3,-4.51592E-2,1.02073744E-1,-1.2823053E-3,-3.951162E-1,5.8500135E-1,1.1193649E-2,4.9666885E-2,-3.0503935E-1,-8.231398E-1,2.1998855E-1,-3.852458E-3,2.6480988E-1,-1.0976066E-1,3.0096573E-1,1.3218384E-2,5.3019E-1,-4.3179426E-1,7.958702E-2,-2.8962258E-1,-8.470919E-2,2.1022148E-1,-1.7201534E-1,-2.586969E-1,1.5860696E-1,4.6921027E-1,-9.7917855E-2,4.413886E-2,-2.1037385E-1,2.296575E-1,3.8610578E-2,3.0293725E-3,-5.781582E-1,-4.7192892E-1,2.024268E-1,-4.7539204E-2,1.6734427E-1,6.3567287E-1,9.395214E-3,2.386696E-3,1.6351646E-1,-4.3030843E-2,-2.1192336E-1,-2.5390425E-1,-1.0335936E-2,1.7366895E-1,-1.02010325E-1,9.082709E-2,-1.1230953E-1,2.3442526E-1,8.1244685E-2],"categories":[],"categories_nodes":[],"categories_segments":[],"categories_sizes":[],"default_left":[0,0,0,0,0,0,0,0,0,0,0,0,0,0,0,0,0,0,0,0,0,0,0,0,0,0,0,0,0,0,0,0,0,0,0,0,0,0,0,0,0,0,0,0,0,0,0,0,0,0,0],"id":25,"left_children":[1,3,5,7,9,11,13,15,17,19,21,-1,-1,23,25,27,29,31,-1,-1,-1,-1,-1,33,35,37,-1,39,-1,-1,-1,-1,41,43,45,47,-1,49,-1,-1,-1,-1,-1,-1,-1,-1,-1,-1,-1,-1,-1],"loss_changes":[4.380546E-1,1.0473261E0,1.2534723E0,9.691173E-1,2.1818414E0,8.171319E-1,9.1564417E-1,9.325839E-1,7.647449E-1,8.8387966E-2,1.892105E0,0E0,0E0,7.8042924E-1,9.6409154E-1,1.1551985E0,2.564292E-1,5.0638294E-1,0E0,0E0,0E0,0E0,0E0,1.3026586E0,6.208721E-1,4.5160615E-1,0E0,8.968258E-1,0E0,0E0,0E0,0E0,2.237637E-1,1.3950742E0,1.132529E0,7.641082E-1,0E0,3.4854412E-2,0E0,0E0,0E0,0E0,0E0,0E0,0E0,0E0,0E0,0E0,0E0,0E0,0E0],"parents":[2147483647,0,0,1,1,2,2,3,3,4,4,5,5,6,6,7,7,8,8,9,9,10,10,13,13,14,14,15,15,16,16,17,17,23,23,24,24,25,25,27,27,32,32,33,33,34,34,35,35,37,37],"right_children":[2,4,6,8,10,12,14,16,18,20,22,-1,-1,24,26,28,30,32,-1,-1,-1,-1,-1,34,36,38,-1,40,-1,-1,-1,-1,42,44,46,48,-1,50,-1,-1,-1,-1,-1,-1,-1,-1,-1,-1,-1,-1,-1],"split_conditions":[4.113E3,3.518E3,4.503E3,4.5E1,3.1E1,1E0,1E0,3.345E3,1E0,4E0,1.5097292E2,-3.852458E-3,2.6480988E-1,3.7E1,2E0,3.148E3,1E0,6.8833336E1,7.958702E-2,-2.8962258E-1,-8.470919E-2,2.1022148E-1,-1.7201534E-1,8.487E3,1E0,7.13E3,-9.7917855E-2,1E0,-2.1037385E-1,2.296575E-1,3.8610578E-2,3.0293725E-3,4.9E1,3.1E1,3.9E1,1E0,1.6734427E-1,1E0,9.395214E-3,2.386696E-3,1.6351646E-1,-4.3030843E-2,-2.1192336E-1,-2.5390425E-1,-1.0335936E-2,1.7366895E-1,-1.02010325E-1,9.082709E-2,-1.1230953E-1,2.3442526E-1,8.1244685E-2],"split_indices":[1,1,1,3,3,22,21,1,14,5,2,0,0,3,7,1,26,2,0,0,0,0,0,1,16,1,0,27,0,0,0,0,3,0,0,11,0,11,0,0,0,0,0,0,0,0,0,0,0,0,0],"split_type":[0,0,0,0,0,0,0,0,0,0,0,0,0,0,0,0,0,0,0,0,0,0,0,0,0,0,0,0,0,0,0,0,0,0,0,0,0,0,0,0,0,0,0,0,0,0,0,0,0,0,0],"sum_hessian":[9.494996E1,6.724038E1,2.7709581E1,6.0641E1,6.59938E0,3.5275373E0,2.4182045E1,5.2647003E1,7.9939938E0,3.6920435E0,2.9073367E0,1.490717E0,2.0368204E0,1.749898E1,6.6830645E0,4.989025E1,2.7567527E0,6.739135E0,1.2548592E0,2.3013651E0,1.3906784E0,1.8830503E0,1.0242864E0,1.1276747E1,6.222233E0,5.468589E0,1.214476E0,4.871998E1,1.1702739E0,1.1663622E0,1.5903906E0,1.9084074E0,4.830727E0,7.6950045E0,3.5817423E0,4.684253E0,1.53798E0,3.6350725E0,1.8335162E0,4.6385265E1,2.3347147E0,1.5830976E0,3.2476296E0,3.6427233E0,4.0522814E0,2.0747163E0,1.507026E0,2.2964902E0,2.387763E0,1.7816668E0,1.8534056E0],"tree_param":{"num_deleted":"0","num_feature":"33","num_nodes":"51","size_leaf_vector":"1"}},{"base_weights":[2.3883885E-4,-1.12095445E-1,1.2302243E-2,-5.9145396E-3,3.188355E-1,1.353085E-1,-5.0586864E-2,4.6380478E-1,-1.8052932E-2,2.2705849E-1,-1.6762622E-1,3.638199E-1,-7.590078E-2,3.890912E-2,1.8636799E-1,7.5217046E-2,6.0902894E-1,-3.8040318E-2,1.7227523E-1,-2.2675493E-1,2.741886E-2,1.0747537E-1,-4.089496E-2,1.6435657E-2,2.1783376E-1,1.8916208E-2,-1.4343339E-1,-4.8658747E-2,4.3816824E-2],"categories":[],"categories_nodes":[],"categories_segments":[],"categories_sizes":[],"default_left":[0,0,0,0,0,0,0,0,0,0,0,0,0,0,0,0,0,0,0,0,0,0,0,0,0,0,0,0,0],"id":26,"left_children":[1,-1,3,5,7,9,11,13,-1,15,-1,17,19,-1,-1,21,23,-1,-1,25,27,-1,-1,-1,-1,-1,-1,-1,-1],"loss_changes":[4.257806E-1,0E0,5.124366E-1,5.5749404E-1,3.1071085E-1,1.479888E0,7.308409E-1,1.21281505E-1,0E0,1.0838566E0,0E0,4.890619E-1,1.0038025E0,0E0,0E0,9.5157266E-1,3.1060028E-1,0E0,0E0,1.9332428E0,8.982922E-1,0E0,0E0,0E0,0E0,0E0,0E0,0E0,0E0],"parents":[2147483647,0,0,2,2,3,3,4,4,5,5,6,6,7,7,9,9,11,11,12,12,15,15,16,16,19,19,20,20],"right_children":[2,-1,4,6,8,10,12,14,-1,16,-1,18,20,-1,-1,22,24,-1,-1,26,28,-1,-1,-1,-1,-1,-1,-1,-1],"split_conditions":[6.53E2,-1.12095445E-1,1E0,2.6E1,2.8E1,4E0,5.7083332E1,1E0,-1.8052932E-2,2.5E1,-1.6762622E-1,3E1,2.355E3,3.890912E-2,1.8636799E-1,1.0838461E2,1.05166664E2,-3.8040318E-2,1.7227523E-1,1.388E3,1E0,1.0747537E-1,-4.089496E-2,1.6435657E-2,2.1783376E-1,1.8916208E-2,-1.4343339E-1,-4.8658747E-2,4.3816824E-2],"split_indices":[1,0,12,3,0,8,2,25,0,3,0,3,1,0,0,2,2,0,0,1,29,0,0,0,0,0,0,0,0],"split_type":[0,0,0,0,0,0,0,0,0,0,0,0,0,0,0,0,0,0,0,0,0,0,0,0,0,0,0,0,0],"sum_hessian":[9.2380806E1,1.9505937E0,9.0430214E1,8.628324E1,4.1469703E0,2.024707E1,6.603617E1,2.8378086E0,1.3091618E0,1.8477356E1,1.7697151E0,3.0317612E0,6.300441E1,1.4929963E0,1.3448122E0,1.4077977E1,4.3993793E0,1.0293188E0,2.0024424E0,2.5125162E1,3.7879246E1,5.7246904E0,8.353287E0,1.0232928E0,3.3760862E0,1.2017902E1,1.310726E1,1.4437315E1,2.3441933E1],"tree_param":{"num_deleted":"0","num_feature":"33","num_nodes":"29","size_leaf_vector":"1"}},{"base_weights":[2.6423587E-3,-5.0241355E-2,9.248432E-2,-1.4303675E-1,4.6879936E-2,1.695337E-2,2.258106E-1,-2.3652416E-1,2.2960263E-1,-4.7934136E-1,1.269197E-1,8.563133E-2,-2.3717347E-1,1.3633911E-1,-3.8807267E-1,5.637007E-1,-2.752434E-1,-2.2659983E-2,-2.0680326E-1,2.4149963E-1,-1.9426307E-1,-2.6694384E-1,1.5610047E-1,-3.6001042E-1,6.4383574E-2,5.430819E-1,-1.7500684E-1,-6.026854E-1,2.1877883E-2,1.3706151E-2,2.4342372E-1,-1.4340295E-1,2.1218663E-2,3.9381453E-1,-3.098462E-2,-2.1233335E-1,1.3087246E-1,-1.1751697E-4,-1.4307885E-1,3.616586E-1,-7.629861E-2,-9.971026E-3,-5.655552E-1,2.5312173E-1,-2.8972177E-2,-1.04252934E-1,7.691456E-2,5.516872E-2,-2.4729732E-1,1.09132856E-1,-1.6651113E-1,1.4332877E-1,-1.0691699E-2,-7.331263E-2,6.861238E-2,-4.391584E-2,1.3324052E-1,8.769821E-2,-8.760499E-2,1.920705E-2,2.0876615E-1,4.1178245E-2,-1.45449E-1,5.0000306E-2,-5.4215718E-2,-2.1017238E-1,-3.690641E-2],"categories":[],"categories_nodes":[],"categories_segments":[],"categories_sizes":[],"default_left":[0,0,0,0,0,0,0,0,0,0,0,0,0,0,0,0,0,0,0,0,0,0,0,0,0,0,0,0,0,0,0,0,0,0,0,0,0,0,0,0,0,0,0,0,0,0,0,0,0,0,0,0,0,0,0,0,0,0,0,0,0,0,0,0,0,0,0],"id":27,"left_children":[1,3,5,7,9,11,-1,13,15,17,19,21,23,25,27,29,31,-1,-1,33,35,37,39,41,-1,43,45,47,49,-1,-1,-1,-1,51,53,-1,55,57,-1,59,61,63,65,-1,-1,-1,-1,-1,-1,-1,-1,-1,-1,-1,-1,-1,-1,-1,-1,-1,-1,-1,-1,-1,-1,-1,-1],"loss_changes":[4.4172838E-1,5.344362E-1,1.7045763E0,1.1060989E0,1.2976208E0,5.7751256E-1,0E0,1.4446168E0,1.2620806E0,2.9443413E-1,1.0139809E0,6.843879E-1,4.6893436E-1,1.0900974E0,1.5767331E0,5.117841E-1,2.642879E-1,0E0,0E0,8.345665E-1,1.3388016E0,2.6205397E-1,1.0876609E0,4.204728E-1,0E0,7.8354263E-1,4.765753E-1,2.1913123E0,1.5967604E0,0E0,0E0,0E0,0E0,4.7786665E-1,5.009727E-1,0E0,5.352577E-1,3.4661698E-1,0E0,1.1441491E0,1.0472753E0,1.2690635E-1,1.3569331E-1,0E0,0E0,0E0,0E0,0E0,0E0,0E0,0E0,0E0,0E0,0E0,0E0,0E0,0E0,0E0,0E0,0E0,0E0,0E0,0E0,0E0,0E0,0E0,0E0],"parents":[2147483647,0,0,1,1,2,2,3,3,4,4,5,5,7,7,8,8,9,9,10,10,11,11,12,12,13,13,14,14,15,15,16,16,19,19,20,20,21,21,22,22,23,23,25,25,26,26,27,27,28,28,33,33,34,34,36,36,37,37,39,39,40,40,41,41,42,42],"right_children":[2,4,6,8,10,12,-1,14,16,18,20,22,24,26,28,30,32,-1,-1,34,36,38,40,42,-1,44,46,48,50,-1,-1,-1,-1,52,54,-1,56,58,-1,60,62,64,66,-1,-1,-1,-1,-1,-1,-1,-1,-1,-1,-1,-1,-1,-1,-1,-1,-1,-1,-1,-1,-1,-1,-1,-1],"split_conditions":[1E0,3.3E1,1E0,4E0,1.2E1,3.5E1,2.258106E-1,2.6E1,1.5097292E2,3E0,2E0,2E0,1E0,1.3E1,4.113E3,1E0,7.238E3,-2.2659983E-2,-2.0680326E-1,4E0,1E0,2.8E1,4E0,1.0642605E2,6.4383574E-2,1.537E3,1E0,1.158E3,3E1,1.3706151E-2,2.4342372E-1,-1.4340295E-1,2.1218663E-2,3.5E1,1.6161539E2,-2.1233335E-1,1E0,1.24583336E2,-1.4307885E-1,4E0,1E0,1E0,3E0,2.5312173E-1,-2.8972177E-2,-1.04252934E-1,7.691456E-2,5.516872E-2,-2.4729732E-1,1.09132856E-1,-1.6651113E-1,1.4332877E-1,-1.0691699E-2,-7.331263E-2,6.861238E-2,-4.391584E-2,1.3324052E-1,8.769821E-2,-8.760499E-2,1.920705E-2,2.0876615E-1,4.1178245E-2,-1.45449E-1,5.0000306E-2,-5.4215718E-2,-2.1017238E-1,-3.690641E-2],"split_indices":[16,3,17,5,0,3,0,3,2,10,11,5,27,0,1,13,1,0,0,5,29,3,5,2,0,1,15,1,3,0,0,0,0,0,2,0,27,2,0,4,31,31,8,0,0,0,0,0,0,0,0,0,0,0,0,0,0,0,0,0,0,0,0,0,0,0,0],"split_type":[0,0,0,0,0,0,0,0,0,0,0,0,0,0,0,0,0,0,0,0,0,0,0,0,0,0,0,0,0,0,0,0,0,0,0,0,0,0,0,0,0,0,0,0,0,0,0,0,0,0,0,0,0,0,0,0,0,0,0,0,0,0,0,0,0,0,0],"sum_hessian":[9.0994446E1,5.755601E1,3.343844E1,2.9191738E1,2.8364271E1,3.0926077E1,2.5123606E0,2.3628992E1,5.5627456E0,3.0860767E0,2.5278194E1,2.486841E1,6.0576687E0,6.8574886E0,1.6771503E1,3.2773046E0,2.2854407E0,1.5210236E0,1.5650531E0,1.8814377E1,6.4638176E0,3.6780553E0,2.1190353E1,4.9224353E0,1.1352334E0,2.6505296E0,4.2069592E0,1.0699881E1,6.0716233E0,1.4433709E0,1.8339338E0,1.2003193E0,1.0851214E0,1.1782724E1,7.031653E0,2.0496917E0,4.414126E0,2.0604389E0,1.6176164E0,1.0949378E1,1.0240976E1,2.2090206E0,2.7134144E0,1.5860074E0,1.0645221E0,3.1441295E0,1.0628296E0,2.3896108E0,8.310269E0,4.044292E0,2.0273314E0,9.761995E0,2.0207286E0,3.8923056E0,3.139347E0,2.6242192E0,1.7899067E0,1.0285244E0,1.0319145E0,6.422029E0,4.5273485E0,7.161383E0,3.079593E0,1.0975267E0,1.1114938E0,1.632295E0,1.0811195E0],"tree_param":{"num_deleted":"0","num_feature":"33","num_nodes":"67","size_leaf_vector":"1"}},{"base_weights":[5.598264E-5,1.0926802E-2,-1.0712981E-1,2.796438E-2,-2.1197987E-1,1.1347923E-1,-3.7594963E-2,-3.980944E-1,1.0418177E-1,-5.6237422E-2,2.190483E-1,-8.266222E-2,2.4158712E-1,4.859438E-2,-1.9897531E-1,-5.2687716E-1,2.2531688E-1,3.6889385E-2,4.6396726E-1,-1.1008657E-1,1.00194834E-1,-2.6058918E-2,3.6326784E-1,3.065811E-2,-2.27692E-1,1.3979802E-1,-2.9584492E-2,8.9101054E-2,-1.12003215E-1,1.8325165E-1,-1.0831835E-2,2.1212216E-2,-5.6996327E-2,2.0090464E-1,3.2041967E-2],"categories":[],"categories_nodes":[],"categories_segments":[],"categories_sizes":[],"default_left":[0,0,0,0,0,0,0,0,0,0,0,0,0,0,0,0,0,0,0,0,0,0,0,0,0,0,0,0,0,0,0,0,0,0,0],"id":28,"left_children":[1,3,-1,5,7,9,11,13,-1,15,17,19,21,-1,-1,23,25,27,29,31,-1,-1,33,-1,-1,-1,-1,-1,-1,-1,-1,-1,-1,-1,-1],"loss_changes":[3.4939113E-1,3.3757553E-1,0E0,4.6403426E-1,7.9578185E-1,6.544064E-1,6.1348784E-1,8.805356E-1,0E0,2.045268E0,9.777032E-1,5.0936353E-1,3.037776E-1,0E0,0E0,9.1586363E-1,8.097758E-1,1.5913337E0,7.142422E-1,5.848819E-1,